Index,Height,Weight
1,-1.2018255194972716,-1.2563543444306844
2,1.9147646074048192,0.835669555813261
3,0.7639822305516903,2.3083885617411606
4,0.1212205193187546,1.3563960557628936
5,-0.11192428092450964,1.5310697403700644
6,0.382883812933501,-0.3383402643310431
7,0.9832674236254735,1.2815384492740065
8,1.0989073315424818,0.8334435058998287
9,-0.049482645485398866,-1.3115781906831032
10,-0.6586148273565262,-0.5729837336060691
11,-0.8188349311082038,0.031112787701413288
12,-0.2013565362103375,-1.1539115274145513
13,0.1679158140898356,-0.13280462372405458
14,-0.476901186083878,-0.4131889666202762
15,0.15551339590482638,-0.980849502944705
16,1.6844363142285628,1.1482247720584002
17,-0.8333470109573009,0.21371121000040114
18,0.35647498122610666,1.4131959453540195
19,1.7598675932643293,0.9616817893128118
20,-0.4689518939372432,-0.2722265819021184
21,-0.08692370275061308,1.2624834620150311
22,0.48128213029170525,1.4635848111944632
23,-2.4535726062484247,-2.600050606956108
24,0.23283140843914762,0.21374682679901713
25,-0.19879558094284763,1.3131839748433536
26,-0.42683478246812756,0.23348743743133063
27,1.548912301400296,1.3642406556578275
28,-0.2714919119965713,0.39606031470908404
29,-0.7936494856750888,-1.6712989524940356
30,-1.3879596631743094,-1.1762432601460997
31,0.8317088946956802,-2.119251428673755
32,-1.1855735125025422,-0.5652905051052476
33,-0.09643349205599162,-0.11696405254007301
34,1.4144485566764025,0.8120912351301907
35,2.0722443259021186,1.1574851396982764
36,0.6592549282012287,0.1466091614099135
37,-0.6470225627487086,1.308669545618914
38,-0.18199984671510372,-0.5227017181614693
39,-0.10148471805067207,0.3780382146099417
40,-2.1468017013829956,-1.8156271246813036
41,0.31589118055407983,-0.2441872571925297
42,-1.5279204902239494,-0.19972858832146922
43,0.9050250747950291,1.119161464388634
44,-0.014325242598831483,0.9142313093580977
45,-1.0944013300710695,-1.8389205109754543
46,0.3691003275766429,0.14796259975727916
47,-0.6050468203601733,1.654535372768646
48,-0.1603866892028781,-0.9156351446808061
49,0.9936689255929904,1.470912967509482
50,0.5951168637951236,0.6972270595971075
51,1.0445726691475814,1.7736913725348273
52,-0.3598584619057018,-0.0688902786095987
53,1.2373783459736771,-0.14409514888497915
54,0.6034195786432184,-1.0145251860351034
55,-1.4191804808938617,-0.32170721937788094
56,1.1912050293462912,1.8512202389198325
57,1.311749356905076,2.564099367396903
58,-0.7883481451532142,0.08655033474551962
59,-0.8859906816575245,-0.6884801073145665
60,-0.2482965082362707,0.597704820067396
61,-0.8098688690358335,0.14516668106600653
62,0.5469480682225754,0.929875988149697
63,0.1684976022291584,0.23669294930667317
64,-0.5334542555894677,0.15331402374916933
65,1.5291043183016662,0.7314191862674195
66,0.12280276556682353,-1.5574231431225167
67,0.5793324622207733,1.368238641302352
68,-0.14279711321493183,0.5028038601579692
69,-0.4230069427477202,-2.0991368416559832
70,-0.3403875896915305,-0.21123281427408414
71,-1.4807467154878236,0.19691788945347263
72,1.5491461041104946,0.6157536327655031
73,1.0498087624014927,1.1837881454753858
74,-2.0164539718130063,-2.160789520058392
75,0.13677111818290016,0.12636991559699015
76,-0.8898511450119165,-0.6057600925314389
77,0.2006862544234782,1.0241091330850935
78,-1.3684289809645107,0.5213602122363374
79,0.9383718659956586,-1.0221026599404244
80,-0.14578217572416874,-0.4076505544356577
81,0.3511138307086045,0.6698822624605111
82,-0.6576959283327388,-0.463337419070069
83,1.1188893073556765,2.5176194452044465
84,-0.9325881055266695,0.16380317094125932
85,0.6569984601842307,0.1780053693889557
86,0.6204763019428038,1.1015489574735602
87,-0.34216557774347756,1.2277036581675707
88,1.1414539875256802,0.39974665336572845
89,1.186925896022482,-0.5323805831850721
90,0.12609231532654627,0.39272123983893714
91,0.07376400642146204,0.8410655008034197
92,1.222790144311963,1.2810843350916665
93,1.89970880032272,1.2027986117360954
94,0.6585154591643301,-1.3321468918832133
95,1.125191105986285,0.5658455937063586
96,1.3937760472772773,0.41831190964374926
97,-0.9282600367518922,-0.6298548567944257
98,-2.483684220412635,-0.35661168202049176
99,-0.6669066676599613,0.09269423250659317
100,0.4859581844956066,-1.0352274502300192
101,-1.6960572624882833,-2.226894298287666
102,-0.4898636433188909,0.28945923645466143
103,0.19245422411567667,0.630596933588265
104,-1.2956619653704997,-2.534211173876517
105,-0.12948667055079485,-1.1167899190581623
106,0.014976217988187424,-0.32148461438653797
107,-0.1803686650160668,-0.3609925482501256
108,-0.912948677870269,-0.05564973372450605
109,0.784817858120715,0.11707393115849804
110,-2.2605005030781578,0.00818447359306663
111,-0.14728830015961467,-0.44930440041579434
112,1.118622881011499,0.04489648876538299
113,1.1920478065574618,0.40426108259016946
114,-1.1134317832264922,-1.3540334146320743
115,1.0947097573036373,-0.4508359227562357
116,0.3358242209163005,0.12933501408168036
117,0.4428732385517296,0.49658872879966787
118,0.9615618324836234,0.7979068450818023
119,-1.380124553746606,-0.9938763470381087
120,0.45220903514254307,0.8727822599699975
121,-1.1925875938084003,-0.6430419764815958
122,-0.42351804634674983,-1.6113647846247976
123,0.7756560542444545,0.10402927866578773
124,0.5167059595224439,0.7291753279546821
125,-0.02835884248287155,-1.8027783645809743
126,-1.2878703541214347,-0.33909712130161046
127,-0.8142784968955636,-1.566060216786631
128,-0.035650224677566685,-0.6939472859019545
129,0.4896229060461084,1.1698352646179957
130,1.221941929828463,0.6127796300811575
131,0.14820570189314192,0.48781809214074623
132,1.7605635641225896,0.3202499588572514
133,0.6001735270621338,-1.0274095629340458
134,-1.9556380808005966,-0.2945583146336654
135,1.6867471549688646,0.09264971150832318
136,0.12235147196342759,0.7891273042232266
137,-1.1290204429969524,-0.9327044954170015
138,-0.3027236042607832,-0.024761065125724936
140,1.0808392755894907,0.29384010268429384
141,0.8291642512451797,0.8106932757845551
142,-1.5274855084375427,-1.220167677037937
143,0.008174190303208847,-0.15791446674756485
144,0.18744649629962837,0.042955373240870315
145,-1.5275942538841505,-1.7760123404218695
146,0.14595467114847985,-0.9477080718335325
147,0.3126396917006716,0.5999664867794442
148,-1.901363228401324,-1.265472244876102
149,0.38978371152042773,0.3254143946564118
150,0.48817115433396635,0.9487350830162926
151,0.8408489494826095,-0.15124522120692363
152,-0.32298288096280886,1.0118480501619112
153,-0.8256206469761931,-0.5595205837296322
154,-1.0773881049501224,1.1621509403168298
155,2.4199578914133575,0.8581437557392692
156,-2.1027217346027025,-1.8688386218119777
158,-0.267740194088787,-1.630838269267498
159,2.1865956002768963,1.0394421648888126
160,-1.458399526211023,-0.9962537683456533
161,-0.49944955443689243,1.7087174276615806
162,-1.9586013942205145,-1.5338092056408317
163,0.7483718216919111,1.0638485761396808
164,0.20963600467885307,-0.6412878491498114
165,-1.459079185252288,0.10727040733974487
166,-0.4658417741644153,0.012520818824431868
167,0.21804746497354946,-1.0570694519806132
168,-0.9253456587829484,-0.20521357530816517
169,-0.4388185306837134,-0.013452731565492364
170,-1.088594323222495,-1.4096312372699484
171,0.7831159918813849,-0.4000908889296419
172,-0.010345159253178212,-0.2576682154682733
173,-0.1263221780546631,-0.2187657671811379
174,-1.4762283421814917,-0.6754087422228943
176,-0.6418897776690755,-1.9834712881540655
177,-0.5978533090674264,-0.36149118343073405
178,-1.2277232476056363,-0.731024373260075
179,-1.093341061966696,-0.4993727150687039
180,-0.7664903103861241,-0.6992809014945367
181,-0.4788694786673855,0.7053654980806136
182,-1.1520744776766665,-0.968258964634336
183,-0.6595337263803196,-1.5964413460051499
184,0.4035073868816522,-0.2563058729212537
185,-0.9607640507413573,1.2521367820173994
186,-1.1059283474109236,0.18235061881997494
187,0.3208336611021586,0.06830562965503291
188,-0.7613194644001886,-0.5500821320966803
189,-0.5589061273667663,0.04847597702618223
190,0.04702893837425669,-2.282403078929001
191,1.194347772753104,1.5930073531613929
192,-1.3441841836445019,-1.4380178257660319
193,-0.2906800460495637,0.5129101267649513
194,-0.3174314259137584,1.7128400721012556
195,0.9068954964765884,1.6461387124951838
196,-1.1938436037166582,-0.5573212464151606
197,-1.0265985441144567,-1.0080340244875352
198,0.1338730520309458,0.10682519735705759
199,0.01651496605761204,0.0329114360314676
200,1.846923760541898,0.06891111523148655
201,-1.2299416547163258,-0.4988562714887874
202,-0.848256011686484,-1.2810813068690867
203,1.098021056152679,0.7034154783564482
204,0.8089593472664458,0.14039403005161077
205,0.3447141611760539,-0.24005570855320083
206,0.2006862544234782,1.150762468959714
207,0.215655065148301,-0.8533057471047142
208,0.424364763539996,1.4933693590361836
209,1.0493629060704204,1.2526532255973146
210,1.936627879444239,2.567901460649042
211,0.24684325923387465,0.615023488393895
212,-0.6957948955498928,0.2667090063393863
213,-0.7120251534553093,-1.8588124930018817
214,-0.030811052303759762,-1.3403743723632564
215,0.492015305871363,0.8090549030482699
216,-0.38155861577520994,0.36808331939707334
217,0.858253658211325,0.37583887729547144
218,-0.17337633279953382,-0.6745895558547517
219,0.5697683001920969,-0.8998301902954405
220,-0.014140375339606851,1.0171549531555328
221,-1.1710994935597534,-1.5538169422627568
222,-1.2074965945375893,0.2719981009337027
223,1.7113290631733378,0.8912406658521744
224,-0.0886853789855647,-1.1881036540848646
225,-1.5900522011402445,-1.0800511912868824
226,0.9318362646548514,0.0545575453896778
227,1.0527503267320852,-0.4545578782114933
228,-1.02110146178871,-0.8139758972341995
229,0.3371019799138836,0.054486311792448616
230,0.5458714883012122,-0.8138690468383558
231,-0.6535309777278671,-0.1733454447474751
232,0.016297475164408735,1.2466250824317402
233,0.9128764960397218,1.6365934104663868
234,2.081455065229347,-0.9827728100699111
235,2.584391881220875,0.7696449153808721
236,-0.3883008334645549,0.5184574431492224
237,-0.31726830774385895,-1.0186389262751243
238,0.2924402249942674,-1.138293561221914
239,0.25968609647762025,1.9455513300514216
240,0.28546420459472377,1.3432534570739936
241,-2.320827039580845,0.6234557654659773
242,-0.15704276671985148,1.3169682596961878
243,0.8033535194940914,1.0366462461975428
244,-0.7023196223460344,0.6541752542713366
245,-1.5019901384816,-0.8980315419653876
246,1.0336655008533586,-1.0174813803201397
247,0.9987310261323304,0.6845830960888145
248,-1.4113834323724668,-0.581229022485419
249,0.17860549149085514,-0.6249575469848754
251,1.144216121869384,1.0540094355223117
252,-1.053931712117974,1.4622758938453648
253,0.13112179223190762,-0.35327260715034486
254,-1.5094283270292113,-1.0307575420038482
255,0.6351134390554918,-0.5447396123044456
256,-0.21369370712738328,-0.57475566933716
257,-0.3846578610033783,-0.2730902892685282
258,-0.6255181506830786,-0.8795909444825172
259,0.048475252814062904,0.07636393034165716
260,-0.7741296780099556,-0.9215386290512273
261,1.1831904899316932,-0.45469144120629906
262,-0.07749547253018121,-0.2766519691300208
263,-0.7452142637583631,-1.6247656051036565
264,-2.341015631742583,-1.998528289768519
265,0.02280589014356712,0.4581938198927936
266,-0.5723579391114836,0.007231724230116888
267,-0.94104850127234,-0.17641739362801048
268,1.4878789194946829,0.5538249241738271
269,1.4761017876276408,-0.4243548329860504
271,-2.285528267613703,-0.9223934322179859
272,-0.08295449394962545,-0.11119413116445756
273,-0.11585542881918273,-2.3574031526123482
274,-0.41032178640155037,-0.7664452794826037
275,-0.6723983127133903,0.8924961580033476
276,0.5640211033391561,-0.7482272869910775
277,0.28973246337387354,-0.26161277591487386
278,-1.8157588128359035,-0.19215111441614685
279,-1.5500066904289083,-0.06351214201874655
280,-0.6809728911779801,-0.49655898797812603
281,-0.5406967023331948,0.5514296944669745
282,1.2355949206494004,0.027159323055158745
283,-0.226732286175007,-0.1800592112863849
284,-0.9177226029761185,-2.1628998153763255
285,0.4966206755349773,0.6338914874601447
286,-1.2985437197054648,-2.3263453042201454
287,0.004476845118728385,1.6727800778591355
288,1.0567304100777386,2.511199517254107
289,1.17023346996901,1.0342510164906902
290,-0.7231661244597247,-0.965311674548951
291,0.7683429229604463,-0.5781926904034982
292,-0.6457719901127805,-1.1302886857332124
293,-0.1594079801834511,0.5554811053094203
295,-0.24792133644549166,0.4167447705046933
296,-1.2041037366035887,-0.7760618151086285
297,-0.9438921947009904,0.3601229649066417
298,-0.32801779514051216,0.2761296495730316
299,-1.6585781443167604,0.18533352570397313
300,0.6869088952722213,1.4284399351612014
301,0.5892554842232454,1.035426370844983
302,0.8973530835372251,0.3428666259777179
303,0.5890706169640207,-0.24922703419653974
304,0.010539403766814523,0.7362007414814734
305,0.46922769753582616,-0.25852301863503047
306,-2.6110197011117386,-1.4124983895584489
307,-1.3145945476239864,0.20493166914182548
308,0.6129728661272351,0.057184284287527296
309,0.9754431887424235,-0.513868752104971
310,-0.27818519423494825,-0.791038678926199
311,0.5950733656164732,-0.33462721307543947
312,0.30407598778072314,2.209097831402443
313,0.11940990763282282,-1.0499282838583226
314,-0.4852528363829468,-0.42008081715226175
315,1.7632822002876491,0.18966987093533838
316,0.6121300889160708,0.9955088437973212
317,-1.3566953472761127,1.5096462360031957
318,-0.7648047559637956,-0.5568671322328207
319,0.0025303016245460603,-1.2286711877072471
320,2.492344297944266,1.9785591981677884
321,-0.009681812028908752,0.31477387607020946
322,-0.7450076474098193,-0.4198493079612648
323,-0.37947614047277706,0.6024151416842193
324,-1.106020781040542,0.6884208061395699
325,-0.790332749553711,0.9557872091420432
326,0.045441254853857985,-1.284073117952739
327,-1.1748566487398737,-0.5258627090385432
328,0.6761539706032444,-1.0841738357265587
329,-1.7940423471493998,-1.4893149199711553
330,0.6633818178997859,-0.09513985918878706
331,-0.4489753553963843,-0.7480759155969638
332,-0.07990418417242512,-0.6937602977092262
333,0.6960978855101246,2.104731707261104
334,-0.04794933468830403,-0.5331819611539066
335,-0.4989547626548582,-0.7742809751778836
336,1.099228130609963,1.3941142454960822
337,1.120558549961028,1.649798338552865
338,1.562391299506668,0.02139830587919729
339,-1.0521428495213676,-0.9914276921333336
340,-1.49862446690926,-2.017520947629918
341,0.4065141984802082,1.0140384832767289
342,0.8296209821209054,1.6386146637877828
343,1.2581759126363934,-0.2400289959542402
344,-0.3772577333620815,-0.259609330992786
345,-0.2108772000603817,-0.08336850724655923
346,-0.07503238816463345,1.0427100061617303
347,-0.8309763602213655,-0.49424389606815666
348,0.5040643013549123,-1.1438943028041078
349,0.2583811511183944,0.20479810614701974
350,0.829533985763629,0.9310335341046816
351,1.2211589626129262,0.6586807792961208
352,-0.07457022001657186,0.05414795220560651
353,0.005814414111939031,-1.0178642609052504
354,-0.4642486533716868,0.39965761136919126
355,0.05744675215876906,0.04289304384329513
356,0.5421578312997364,-0.122974387306338
357,0.7245293825243243,-0.6334165366559156
358,1.1413941775300527,1.2257002132454828
359,0.4074602838656444,0.8738774765274056
360,-2.0701470360729504,-0.7681014606181968
361,-1.0346674562523648,0.21810098042969034
362,0.6799437494173372,2.223308934049795
363,0.9088202908814517,-0.5554068434896099
364,0.23573491186343787,0.801424003945025
365,0.15902587383008832,0.263467877665432
366,0.7520746041487213,0.4160146261330893
367,0.1954664729865564,1.0932413391966338
369,1.2929472691875161,0.04829789303310788
370,-1.2312085391692493,0.41837423904132726
371,-0.814169751448962,-0.378079707385629
372,1.533165960732266,1.1674400349111447
373,-0.3359507754701576,1.388228569524969
374,-0.10687849220215288,0.9196005417492958
375,0.09082616699338332,-0.0946501282078326
376,0.46986929567078256,1.4688650015891243
377,-0.1523721497882738,-0.39910252276807895
378,-1.812561696705787,-1.647079529435897
379,-1.2268913449391254,-2.354313395332505
380,0.2342124756109965,-0.9761213729285765
381,0.4870728253232842,1.195577305816923
382,0.15225103250675254,-0.12568126400107069
383,0.6452920128574696,0.6438374784733576
384,2.5100099957448228,0.8336750150908258
385,-1.0614025242995702,0.0694542714103636
386,0.6715812245736149,-0.3531479483551917
387,0.4802816721829591,-0.9585088660135026
388,-0.8336623727524463,-0.22653022927918864
389,0.712708752478644,-0.11725789112864514
390,-0.22356235640654545,-1.737359209725039
391,0.774541413416783,1.4176747577798432
392,-0.2854493900679884,-0.744282726544477
393,-0.8400185441063587,-0.7227167549831472
394,0.4176877931186024,0.4249277299864707
395,-2.297164030400159,-0.6885691493111038
396,0.5670931622056756,-0.08725073829558458
397,-0.8177637884591706,-0.04362906419197328
398,-0.6804291639449779,-1.205849723994743
399,-0.16296395628735122,-1.0026915046952989
400,-0.708474614623739,0.28240711032890814
401,-0.5246349998700197,-0.14673969618213664
402,-1.1324187382032767,-0.8847820928806409
403,1.1074329745561156,0.9096723591353896
404,0.6938631665824458,1.989422321745338
405,1.1327434772528278,2.134097757719098
406,-1.6769833111542223,-0.899571968505483
407,0.9209562827222835,0.9862751887564056
408,-0.23294165117600932,0.046196501914827444
409,-2.2501424992892787,-0.56548639749763
410,1.971143684195844,1.527205317720347
411,-1.6332078316244147,-1.8973320607039064
412,-1.8410965018942644,-0.6184396728383466
414,-1.4726832406222512,-0.10072279237167417
415,-0.15878269386549007,-1.502110254873562
416,1.5573890089629556,0.6560985613965399
417,0.09629062568515126,-1.0324849567366705
418,-0.2955681538743447,-0.17751261018541997
419,1.6575979380070918,-0.9519375666690526
420,-0.08881043624916177,0.5602715647231254
421,-0.45606555851485325,-1.6343109071324522
422,0.16813874225537478,0.6496875376458563
423,-1.4036733802083545,0.3656346644922982
424,0.36641431504556815,0.332092544396707
425,1.1275128212712524,-0.0016368586249959325
426,0.6201065674243545,-0.6852211702413015
427,-0.5289793804617803,-1.9180165164995155
428,-1.343504524603237,0.6563389747871908
429,1.1986051569875882,0.49752366976330825
430,-0.1767093807378948,-0.09297613867293004
431,0.9454946927481185,-0.0666909412951285
432,-0.20469502142103432,1.3586132014766719
433,1.5236507341545518,-0.22393020298029975
434,0.9049707020717253,-0.4222178250691554
435,-0.6855782608415943,-0.34480471327964934
436,-0.2248727390381133,0.3831225126122189
437,-1.4900770748063132,-0.24918251319827117
438,1.479054226502899,0.11409992847415383
439,1.7834707924493876,0.8682322139469433
440,-0.7799910575818216,-0.8054100571673143
441,0.026541296234356027,-0.49910558907909236
442,0.06705984963841947,-0.6964048450063837
443,1.763331135738617,-0.0487667873921745
444,-0.58167198661299,0.191041117682012
445,1.691075223743636,0.6836837719237874
446,0.7726383681012389,1.6891549010223388
448,0.31731574590457906,0.27481182802427917
449,0.8751255142516919,0.45339445627943586
450,0.5748358380037667,0.031780602675443505
451,0.15949347925047966,-0.15632061500954827
452,0.684608929076579,0.6815022430086237
453,0.13319339298968091,-0.4596956014116945
454,-0.16684616873105632,-0.12763128372523735
455,0.460631369981899,1.678781508425748
456,0.8302462684388786,-0.6394535840211439
457,-0.5529577514376115,-1.3884214336947702
458,2.18123988703173,1.0305557736343918
459,-0.298417284575325,0.7045819285110856
460,-1.0502180551165043,-0.9432381636073615
461,-1.3152524575759261,-0.2800088523994757
462,0.16749714412041836,0.877047371604132
463,1.6487841195599613,2.3130899791583257
464,1.5089320379569169,-0.06635258170828638
465,-0.2639993507256561,1.5991245383235018
466,0.8241293370674886,0.7187217975612054
467,-0.8417747830689867,-1.6291286629339838
468,0.31277562350892213,-1.4769113698535132
469,-0.5332313274239346,0.9942711600454519
470,0.3840800128461313,-0.6759251858028108
471,0.12857714878141316,-1.0489844386950284
472,1.3122713350487651,0.4689144762758833
474,-1.2454378808571676,0.026972334862430395
475,0.2647373224723007,0.641121697578971
476,-0.7420497712622313,-0.18966684271275713
477,-0.6257247670316285,-0.26981354379595784
478,1.035084628931522,0.5739127985926353
479,-0.1845173038039493,0.6276318351035748
480,0.17155334927868243,0.2801899646151299
481,0.9541453930253433,0.9786888106514307
482,0.3182998921963237,-0.044145507771891135
483,0.08216459217149279,0.4189797246177809
484,-0.0069196776852049205,0.4126310302646724
485,-1.7226944596335525,-0.8437693492755726
486,0.6601901390420053,-0.0808397145449009
487,0.6915903867484585,0.036597774688109215
488,1.6021703838738268,1.3691379654673779
489,0.5897285269159664,1.0989400269750187
490,-0.9742647979370426,-1.4942834633779347
491,1.6660528964804202,0.4320243771104912
492,0.5444197365890702,0.18712326983437205
493,1.6133657276015523,-0.2449441141630971
494,-1.0704338336398977,-0.051384622090371396
495,1.017011135706201,1.9703317176877437
496,-0.6337882418971947,1.3405732929782215
497,0.5984172880994998,0.003687852767933638
498,-0.641275365895768,-0.42445277918224156
499,-0.46859847123578935,-1.28543546049976
500,-1.8592080560259,0.637764814309516
501,0.3733903354451118,-0.5706330248974838
502,-0.24816601370034994,-1.0078826530934213
503,1.731044612642355,0.14098170722875503
504,1.381873858146644,0.681965261390619
505,1.9250410521087513,-0.7800330881541925
506,-0.6636986769851914,-1.8651166663567202
507,-0.901117173279929,-0.06409981919589358
508,-1.7196495871286819,-1.13355652700613
509,0.21140855545847032,0.28284341611194
510,0.03084217864748447,-0.33796628794558636
511,0.5969220382087135,-0.3779906653890918
512,1.0422183302286414,-0.12545865900972775
513,0.22494736356047623,-1.3692417876406417
514,0.18048135044475036,-0.13806700571940755
515,-0.5644467078711571,-0.6350460051925482
516,1.3889531867204596,0.4899194832590253
517,0.7527325141006671,0.496107902018366
518,-0.25747462392951453,-0.859262656673058
519,-1.6976449460086818,-2.248068485064228
520,0.6200141337947422,0.11928217267262226
521,0.44491221567552425,0.6178817364827428
522,-0.23336575841776244,0.05778086566432694
523,0.094643132169125,0.04585814232798673
524,-1.1890153058875046,1.094763957337421
525,-1.6697299898658415,-1.1721562325050379
526,0.1969290992433641,1.8179363406142002
527,-0.694990179245043,0.49419349909281535
528,0.646113040979327,0.5085826857332373
529,-1.1449299018348815,-1.9596347456810361
530,-1.063707927767536,0.03708750566906508
531,0.7874712470178111,0.3230725901474818
532,-0.4595508500784602,0.1317213395888803
533,-1.2501574332397194,-0.403563526794596
534,0.7794730194202022,2.688526653358088
535,-0.7876576115672898,-0.533582650138324
536,0.5714756037037507,1.8168055072581761
537,-0.20297140609237901,-0.8556208390146836
538,0.8685464147322465,0.4759309856030206
539,0.07056145301901574,-0.794680496584572
540,1.7577361825109283,-0.3000967268182853
541,-0.8486529325665882,0.2905277404131089
542,-0.9110565070993906,-0.3752214592967826
543,0.018260330475586478,-1.7125343010904484
544,0.1598251528626144,-0.7578527268167564
545,-0.5859021844858192,-0.12959911184871203
546,2.0562696197962196,1.9143510144647604
547,-1.05934723535878,2.0637100594563833
548,0.5550876649007646,-0.0030615305695907563
549,0.3881035943704228,0.143359128536301
550,-1.6212077715918394,-0.7727850696360582
551,-1.0521591613383567,-0.15264318055255785
552,1.7238184777156296,1.9736529841585841
553,-0.2397382415886581,-1.7589162770867135
554,0.4572167629585853,0.5874115652676869
555,0.06766882413939723,-0.20046763689272723
556,-0.04805264286256982,-1.2821498108275342
557,-0.19183043508796352,0.0657590285540666
558,0.9728169862069763,0.6285756802668677
559,0.002845663419691456,1.0240646120868262
560,0.7726329308289092,-0.09422272662445332
561,1.3246465668721195,0.22112840831195715
562,-0.17315884190633052,0.6235804242611277
563,-0.06160232550923528,-1.8678413514507608
564,0.04099356608781944,-0.004103321929077674
565,-0.5433500912302909,-0.4610668481583682
566,1.9483017031370093,2.1044467728721874
567,-1.9726513059215438,-0.988017383665956
568,-0.03455189566688453,-0.14490543105346912
569,1.0466605817223502,0.401376121902361
570,1.0575405636549302,0.17518273809872387
571,-0.6502958006914482,0.17893140615294345
572,1.151360697711157,1.8752437695855873
573,0.5189787393564312,-1.933474207098385
574,0.01914116859305924,-1.4743113435546242
575,0.7437229538496586,-0.7534718605871226
576,0.24750660645814412,-0.3817304292436574
577,-1.2455901244824135,-0.19724431661807948
578,0.8498911333676028,0.7717552106988051
579,-1.1675489547281892,-0.9479306768248754
580,0.43833855342840855,-0.15497608086183523
581,0.5680283730464523,0.5360165248663737
582,-0.34262230861921544,0.9999965604228002
583,1.2854927688229154,-0.23195288686830798
584,1.0301584602004326,0.856434149405752
585,-1.5444389235628624,-1.0762401938350876
586,0.7695989328687042,0.4927955397471783
587,0.2800649931709132,1.4273536228034445
588,-1.2386847886231631,0.6802823676560639
589,-2.180659596182655,-0.3986929295840077
590,1.132689104529524,2.3561595928834076
591,0.2347616401163467,-0.07240743747282136
592,0.13212225034064767,0.6783590605308578
593,-0.08976739617926359,0.6675048411529665
594,-0.9139436987066792,-0.7753494791363311
595,0.9556678292777725,-0.5166646707962422
596,-1.2422244529100677,0.4614349485667521
597,-0.6042910395062855,1.064899271698819
598,-0.38852376163009406,-1.4606612054854604
599,1.435392929692029,2.4045895348000306
600,1.0570294600558945,-0.26204908169790714
601,-1.1510413959339418,0.6602568226348322
602,2.4213715822191912,0.9937101954672696
603,1.1292473111445613,1.9569576098078454
604,-0.16790099956310023,-0.00843076296079031
605,-1.0214222608561851,-0.8263082137546138
606,1.0602102643690157,1.9417759493982414
607,0.13566735189989432,0.09909635205762286
608,0.43921395427355764,0.23081617753521255
609,-0.7478839644724546,-0.13666014217411793
610,1.1925860965181403,0.1507050932506278
611,-1.3070911118084179,-0.25957371419417136
612,0.3816984875655363,2.1650131389168394
613,-1.6895053493304866,-1.7916926360120846
614,0.9929947038240553,1.6490503857819516
615,-0.8993446225003118,-0.4905842700104743
616,1.3319923217901122,0.34160222962688946
617,1.0863526697322388,0.7584701448154425
618,1.1649430039918072,-0.2823239443094451
619,-0.44278773948470107,0.43571071576713283
620,0.11404331984299698,-0.8564222169835196
621,-0.12638742532262653,0.22754833626229481
622,-1.737820951255951,-0.4213095967044756
623,-0.823717601660649,-1.1144035935509635
624,-0.5493202162487647,-0.9404689575150522
625,-1.2471723707304825,1.0977557684210733
626,-0.6343156573132136,-0.32233051335364116
627,-0.8929340784230956,0.4850132692498238
628,1.1642579076782125,1.4513059198719729
629,1.1537857211703961,0.520069103286547
630,-1.8661840764254496,-2.511427998222524
631,0.08894487076715835,-0.41564652572470395
632,-0.46007826549449127,-1.9968097792353492
633,1.5744239831732219,1.3964026248070898
634,0.0916308832982392,0.3406850970625557
635,1.7415113618778417,1.48921109779789
636,-0.03763482907805746,1.3517480635436467
637,-1.4635051249290074,-1.7058739597494583
638,-0.8624037942894616,-1.9066636619410129
639,1.8012669847858775,-0.15150344299688115
640,0.5797837558241813,-1.841627387670187
641,-1.1087883526565696,-0.7626520904301155
642,0.8939439137862412,0.8620526993872565
643,1.6916950727892732,1.676715734106082
644,-0.9651954276904066,0.2257051669339733
645,-1.0107706443614741,-1.6567762028588064
646,-0.11339778172596474,-0.520760602636958
647,-0.7157007495504707,0.7691195676013031
648,1.0876848014531135,0.9260738948975548
649,1.712981993961694,-0.2757615491646476
650,0.35103770889598157,0.15663529022000963
651,0.5936542375383159,0.585799905130361
652,-0.01074751740561223,-1.8328122300129968
653,-1.1122301460415382,-1.2521426579944723
654,-1.0725761189379703,-0.1013549905470884
655,1.7628200321395875,1.1746702450299709
656,-0.25387514964697616,1.4359639838686027
657,1.6723383832940455,1.6654519215441168
658,0.15122338803636967,0.09505384541483114
659,-0.3666550523183445,0.6305702209893029
660,0.5409126959361381,1.1677338734997167
661,0.22311500278522534,1.713445557677708
662,-0.49025512692665923,0.4430922972800728
663,-0.666063890448797,-0.4427331010713443
664,-1.2762889640582766,0.38885681718921977
665,-1.4422943255692096,0.2149934147505376
666,0.10294584701721973,-0.12083737938944437
667,1.449350407763446,2.3183167443550627
668,-1.1144485531522217,-0.226726121671571
669,0.8885936378134047,0.687432439978007
670,0.166377066020411,-1.0430809543246071
671,1.1239350960780332,-0.8138779510380098
672,0.24052514878627068,-0.225942552102043
673,0.6940480338416766,0.6501950770261201
674,-0.15689052309460552,0.19651720046905394
675,1.576533644837316,0.5378240773960793
676,1.386218238738417,1.8038766093609635
677,1.9504603002520653,2.4852526794631475
678,0.23345125748479104,-0.07227387447801559
679,0.7417274749045022,0.6551992372315142
680,1.3328622853629315,0.6168310409236019
681,-0.3328297811526641,0.16228945700012593
682,-0.26424402798051444,-0.36043158367194195
683,0.2864809745204532,-1.3288078170130648
684,-0.6443582993069469,-1.3674965645085113
685,2.38786711012098,1.9018762307498878
686,0.28424081832044457,0.8586958161178002
687,1.5247490631652398,0.5435672861727328
688,-0.9649018149845803,-0.9097138519110782
689,0.17291266736121827,-0.2001648941045011
690,-0.44702881190220195,-0.4916260613699612
691,-0.12084684481823561,-0.34772529076607234
692,-0.2829428075238024,0.8924961580033476
693,-0.1190906058556016,-0.4993549066693959
694,0.6564601702235461,2.122549010768213
695,1.1142676258750728,1.3533241068823596
696,1.4007140067705124,0.6812173086197056
697,-0.8372672843073145,0.5748833563548931
698,-0.16982579396796346,0.8002486495907323
700,0.7401452286564394,-0.6555078559968144
701,1.4118114795962897,2.298389145530024
702,-0.39006794697184843,1.1661756385603135
703,0.2690762657917376,1.6159445714693936
704,-0.5283812805054682,-0.6782046609141642
705,-1.2057294810303019,-0.3196770618568311
706,-1.1026061740172222,-1.4626735546072036
707,0.1060396549730583,-1.3896858300456
708,2.225091488374148,1.1025818446333944
709,-0.6198905738214112,0.5329890969841041
710,0.6066003829563333,0.571419622689593
711,-1.8501713094132364,-1.2761839970595363
712,-0.5193499711651405,-0.20521357530816517
713,0.5425873758138193,-0.3276552247465707
714,1.4164440356215529,1.3347321380053725
715,1.1397738703756692,-0.9635041220192441
716,-1.255605580114504,0.3582530829793582
717,-0.4868840180819777,0.36926757795102
718,-1.0626259105738434,0.012467393626507887
719,0.6908454804392302,-0.4140348655873808
720,-0.7504231706506193,-1.0559564270238957
721,0.067271903259293,-0.013265743372764014
722,0.9444181128267615,1.4550991089244638
723,-2.160356821301985,-0.1536137383148156
724,-0.9548537357185111,-1.6110086166386475
725,2.432610424125549,1.0808734058776048
726,-0.9647223849976854,-2.2189428479968867
727,1.7965528696756556,1.539323933449071
729,1.596754860633033,1.628722097972491
730,0.14203983507079,0.6967106160171924
731,-1.7472763678380256,0.674565871478371
732,-1.3940276590947194,-1.3895789796497549
733,0.5002038380005263,-0.6506372587862247
735,-1.0011575468818237,-0.8853608658581326
736,-1.092781022916692,0.011879716449363639
737,0.6795740148988879,1.5865785210113998
738,0.17734404431026748,-0.3789434147520402
739,1.154014086608259,0.6311133771681814
740,0.3488301763299577,-0.18917711173180266
741,-0.1363485082314071,0.7783977436404858
742,-1.852612644689465,-0.5591822241427915
743,-1.8117026076776332,-0.18563324026961942
744,-1.1341858517105703,0.5738949901933301
745,-1.2055337392264178,-0.22651242087988066
746,-0.45839271107215046,0.7895279932076453
747,2.310695903939581,1.466665664274654
748,0.4014520979408621,0.3090039546945912
749,-0.2302502013725987,0.007997485400336886
750,1.2879177922821547,1.2586101351656598
751,-2.376809195491777,-1.7522203189471115
752,-0.9713939181467433,-0.4255123789410337
753,-0.9637654250675775,-1.3798555936278833
754,1.1301607728960188,0.9607023273509014
755,0.9040246166862891,1.4043718834971768
756,-0.9478396544126589,-1.1279201686253217
757,0.04172759785238819,0.10430530885505186
758,-0.45976290369934586,0.6651719408436877
759,0.41999319658658046,1.1576543194916966
760,0.0691042640345439,-0.45635652654154624
761,-1.2308823028294382,-1.39594548240217
762,0.6419970258254232,0.7099689693015917
763,1.2885539531447814,0.5236040705490762
764,1.5180394691098738,-0.832149368727457
765,1.569834925326603,0.7021421778059644
766,-0.7460896646035121,2.1824119450402244
767,1.081605930988038,0.16263672078662061
768,-0.579067533166862,-0.6183684392411174
769,1.8836905960381831,-0.13369504368942633
770,0.907906829129988,0.06473504559388907
771,0.7154219513713798,0.804335677231794
772,-0.7589923118428914,-0.9632637086285946
773,-2.061577894880678,-0.0021800148038729882
774,0.12878376512995082,-0.12338398049041069
775,1.1399533003625701,-0.5366813116178213
776,1.6213095824758574,-0.388577758777373
777,-1.6650648102065937,-0.6809649628068208
778,-0.5940744047979871,0.5166766032184761
779,0.6548507376138283,0.5134621871434796
780,0.22904162962506092,-0.24518452755374665
781,-0.9120243415741519,0.45568283559044326
782,2.251581879166501,1.3981211353402607
783,-1.2220412980206652,0.2228558230447795
784,1.0728356107195518,0.1273671859582071
785,-1.5656551601949897,-1.256407769628607
786,-0.3048767641035093,-0.44722972189647586
787,-0.8676833857220109,-0.7752159161415253
788,-0.43822586799973107,0.26959396702719474
789,-0.16729746233445833,-1.3730082640941679
790,-0.11905798222162293,1.3483644676752313
791,-2.37298135577137,-0.400447056915792
792,-0.8409591922194651,-0.3813119318599321
793,2.1366542539247306,-0.7114351340218752
794,-0.03888540171399165,1.0980050860113784
795,0.009664002921665454,1.2673451550259656
796,-0.12419620457358592,-0.6513584989581761
797,0.6547854903458649,0.8213070817717982
798,-0.5396853696797891,-0.7739782323896575
799,-0.4877594189271267,0.9429384490417152
800,1.0101275489362698,0.17593069086963725
801,-0.3076606475365322,-0.3239332692913117
802,0.06347668717287044,-1.0392165316748883
803,0.1634844371407864,0.2518835139159325
804,0.792810648445988,0.7883882556519687
805,0.5918653749417032,0.06332818204859945
806,1.5897897147781428,1.0684342389613495
807,-2.0596367886588256,-1.5928707619440046
808,1.6907163637698523,-0.2214281228776034
809,2.2247000047663796,0.811957672135385
810,-1.00179914501678,-0.5903469229308367
811,-0.2526572006450267,-0.9737884726193005
812,-0.4446581611662604,-1.0322534475456737
813,2.6837797821431657,1.3261841063377982
814,-1.3335108180604718,0.7465919424773708
815,0.5933225639261751,0.7148573749114879
816,-1.4701005362654422,-1.6786894382066295
817,0.29405509487631504,-0.17581190805155683
818,1.81298430665728,1.4061972444261903
819,-0.6050087594538649,0.10646012517125489
820,-0.044420544946052784,0.1038066736744448
821,-0.5389839615492051,-2.0956642037910305
822,0.15343092060239352,2.5826379110759627
823,-0.9737591316103428,-1.9710410254374613
824,-2.039801619198535,-0.4866753263624883
825,-0.30246261518893564,0.4366990819286958
826,-1.8991556958353002,-0.7741563163827319
827,0.4906668623334867,0.7379459646136037
828,1.2698334245121743,1.2075089333529172
829,-1.9988698330973897,-1.3740856722522694
830,-0.4790924068329186,0.08286399608887801
831,0.010006551078465825,0.30020660543671035
832,0.1408327606135001,0.09888265126593392
833,-0.1222985965303716,1.3995636156841635
834,-0.2994558035903796,-0.3581075875623186
835,-1.2276525630653492,-0.8214198081447162
836,0.8971845280949959,0.34060495926567114
837,2.1393076428218265,0.18443420153894458
838,0.7615952679987655,1.556117253995998
839,-0.46025769548138007,-1.0007147723721717
840,0.6270499641899195,-0.9411723892876956
841,-0.591421015900891,1.3260594475426448
842,-0.08463461109963039,0.447722481100013
843,0.05572313683011981,0.7264506428606414
844,-1.0073777864274855,-0.0030081053716695663
845,1.7237260440860172,0.24413686021718836
846,-0.2371120390532109,0.6593040732718811
847,1.0978579379827675,-0.5112153006081609
848,2.485188847557827,1.4288050073470042
849,-0.7565509765666688,-0.2072971580271376
850,0.28511078189326994,-0.6186266610310749
851,-0.8956690264051504,1.0964735636709368
852,0.5618135707731262,0.40711042647936047
853,0.6148487250811242,0.3533023479718853
854,0.13708647997804557,0.24835745085305583
855,0.268189990401929,-0.33463611727509346
856,1.4620573131989412,0.9286383043978277
857,1.2864769151146722,0.8714021090236684
858,-0.20098680169188823,-0.7746460473636863
859,0.7898418977537405,-0.9668253884900844
860,-0.03740646364020068,-0.20113545186675746
861,0.2173895550216037,-0.5450512592923242
862,-0.9110347580100714,-1.9572662285731457
863,1.759046565142484,1.6326310416204783
864,-1.4691327017906808,-1.6838716824050994
865,-1.0824447682171325,0.2916674779687856
866,-0.2043905341705424,-0.8535995856932878
867,0.603049844124769,0.7812559917293336
868,0.5457790546715939,0.036544349490188026
869,0.5881245315785846,2.1635083291753587
870,0.1887840652928451,-1.3019972718556916
871,2.005431123509592,2.6403816458303844
872,0.42572951889485555,0.9890443948487163
873,-0.9850958444186485,-1.5612341405743113
874,2.3800374379656124,1.1461500935390818
875,-0.6209943401044171,-0.22393020298029975
876,-1.2161962302657823,0.30275320653767523
877,0.9236803561596728,2.1348813272886273
878,-0.93222380828055,-1.6321382824169426
879,-0.8243646370679413,-1.8796305117922967
880,0.39445432845199935,1.4538703293722486
881,0.16245679267039137,-1.100450712693572
882,-0.17763371703401795,-0.2963836755626803
883,1.7971237832703248,1.1018695086610957
884,-0.5002107725631101,-1.004579195021889
885,1.4608991741926254,1.7332930187058666
886,1.852741641935132,2.3949729991740045
887,1.6367623104380549,0.9338472611952595
888,-0.9318160128557923,-0.10448926882520036
889,0.032718037601379674,1.1211916219096851
890,-2.082582077891932,-0.06621901871347922
891,-0.605710167584449,-1.172815143279414
892,1.3789051074543965,0.23670185350632716
893,-1.3798200664961142,-0.9714199555114086
894,0.6087861664330442,1.0709274148643932
895,-0.027972796147432952,-0.010745854870758293
896,-0.42435538628559044,-0.11281469550143612
897,-0.1938150394884543,-1.2090285232711235
898,1.1418237220441294,-0.3441458025052731
899,-1.946606771460269,-0.36033363747574937
900,0.9696416191661851,0.09178600414191342
901,-0.7676593239371057,0.07421801822510812
902,0.08498109923850049,-1.4811586730883413
903,-0.9852372134992289,0.0742803476226847
904,-0.6522205950962993,-0.7955352997513305
905,-0.4501824298536681,0.23347853323167664
906,0.01380176716488838,0.3122896043668169
907,-0.5629133970740623,-1.9643361630982055
908,0.3862168608718681,-0.3982210070023598
909,0.9172208766314945,0.9993821706466925
910,-0.7969553472518008,-1.7242166110361374
911,-0.828556774034462,1.2768192234575306
912,1.8773670483182494,2.368019986822171
913,-0.7433710284384526,0.6636226101039411
914,-2.1659408999850203,-1.5531491272887266
915,-1.6097242524306237,-0.8814519222101467
916,-0.6641608451332529,-0.2509099279310935
917,0.5033085205010244,-0.16765566116874284
918,1.7592858051250064,0.5452412757076325
919,1.6908087973994645,-0.4005093863133672
920,0.985958873428878,0.6912345332301477
921,-0.49065204780676347,-1.3936481988915086
922,-0.38826277255825253,-0.9132488191736076
923,2.105460622566833,1.4291700795328068
924,-0.4304614431123148,-2.420014813317463
925,0.24327640858531496,0.07310499326839202
926,-0.43002102405357234,0.850869024622173
927,0.7461153536749131,1.628802235769377
928,0.5697954865537458,-0.03743174123297994
929,-1.1353331161722204,0.09760044651579607
930,-0.8406003322456815,-0.38015438590494743
931,-1.0404581512839377,0.5480460985985591
932,0.7394764441598279,-0.9208351972785825
933,1.544149250839112,1.5086667740412867
934,-0.17924314964373575,0.4819947455672082
935,-1.4593619234134607,-0.2777204730884683
936,-0.720703040094177,-1.2430158533494005
937,-0.5768654378731557,-0.28056981697766076
938,-0.13825699081928097,0.6122988032998556
939,-2.020727667864474,0.09346889787646856
940,-0.6303083876059176,-0.5177242705550358
941,-1.139856926750888,-0.39102641368214813
942,-0.18337547661462283,-0.15035480124155046
943,0.3784361241674625,-0.19821487438033583
944,-1.0404907749179224,-0.9359990492888812
945,-0.5873430616533017,0.2481437500613669
946,0.8102969162596564,-0.2861082291622793
947,0.3296909777279272,0.9398308833625653
948,0.6625825388672598,0.3364288896280736
949,-0.19587032842924437,1.3239135354260958
950,-1.228609522995451,-0.1218791707489299
951,-1.0299207175081642,-2.020486046114611
952,-0.1852622101131776,-0.8934191665447568
953,-0.21611329331428067,0.4153557153587117
954,0.8617715734089167,-0.1449944730500063
955,-1.0357277243567324,0.22004209595420163
956,1.134543214394094,0.26740353391237853
957,-1.6225344660403906,0.42992298599221074
958,0.6366956853035547,1.3678913775158545
959,0.8803507329609375,0.04816433003830212
960,1.8976154504756215,2.3340682735425085
961,0.8049738266484749,-0.030388519306880628
962,0.5486444971895756,-1.16434724940872
963,0.8506306024044953,0.611381670735522
964,0.3500535626042369,0.04316016983290666
965,-0.430108020410861,-0.05487506835463206
966,-1.04260587385434,-0.5642665221450687
967,-0.9842748162967973,-0.04045026491559273
968,1.5301156509550657,0.5318048384301602
969,-0.45436912954785896,-0.10126594855055122
970,-1.4660823920134805,-0.5148036930686127
971,0.6749197097842995,0.23865187323049245
972,0.4969795355087609,0.26291581728689956
973,2.367466464338374,-0.3296052444707374
974,0.1641586589097215,0.9061730086714749
975,0.19231285503509027,0.05816374624943763
976,-0.2875753635490656,0.5861738815158205
977,0.47542075071983303,-1.1731000776683351
978,-0.7443334256408903,0.7581584978275652
979,-1.7517403684210597,-0.4008388417005567
980,-0.1561510540577131,-0.7261359676501801
981,2.7177355478447733,0.6382634494901231
982,1.6084993688660905,-0.2517647310978521
983,-0.020056127634776804,0.32018762945967477
984,-0.4263182415967621,-0.21570272250025654
985,-0.8830491173269318,0.1764560386492063
986,-0.19285807955835857,-0.45915244523281745
987,0.9519487350039729,-0.07419718160322028
988,0.09877545914001815,0.6687069081062184
989,-0.5962221273683895,0.42254140447927074
990,-0.27026308844996233,-2.0942128192474723
991,-0.8036105685838633,-0.9536115562039537
992,-0.6037201259116284,-0.319899666848174
993,0.9428467411233521,2.0690971002468865
994,0.9731595343637767,0.7249369289195067
995,-1.4099914906559585,-1.3039116747812436
996,0.0025303016245460603,0.9246047019546899
997,2.3174489961735856,0.5064723904153057
998,1.5235039278016416,-0.09559397337112695
999,-1.5255879003943285,1.2694643545435524
1000,-0.15298112428925154,0.7839539642244122
1001,1.1188838700833528,0.6734528465216563
1002,-0.3744575381120692,-0.4522427863015239
1003,-0.8675311420967711,0.11112592578980823
1004,0.947560856233562,0.31460469627678767
1005,0.3930786985524803,0.41091251973150406
1006,-2.2343309113532857,-1.646295959866369
1007,0.22556721260611354,-1.1161310082837859
1008,-0.03324695030765864,0.5708853707103686
1009,1.4697401790014046,0.780178583571232
1010,0.5204413656132328,1.8705156395694602
1011,-0.8150940877450852,-0.3191517140772606
1012,0.3262546216152883,-0.5575438514065049
1013,-0.9402329104228184,-0.9648219435679966
1014,0.8661050794560239,-0.28525342599552067
1015,-0.3464338365226273,-0.6929411113410836
1016,0.9208638490926712,-0.6849540442516899
1017,0.24293929770085046,-0.22339595100107668
1018,0.26429146614123455,0.3364021770291116
1019,-1.3805377864436936,-0.792151703882915
1020,-0.6444017974855912,-1.5552505184070071
1021,1.1192427300571364,1.1689092278540094
1022,-0.30344132420835657,-0.4920267503543785
1023,-0.7887287542163229,-2.5643705885236567
1024,-0.3643659606673618,-0.8445529188451005
1025,-0.01150329825950009,0.8377264259332728
1026,0.5681534303100432,1.9479643681575793
1027,-0.16264315721987604,-0.2792074744306397
1028,0.713056737907774,0.5781957186260794
1029,-1.412182711404999,-0.8787361413157599
1030,0.1972227119491904,-0.3123489055418122
1031,-1.4271623966744753,-0.8311877151648561
1032,0.20190420342542764,0.9019880348342234
1033,1.7200069498122177,0.18675819764856935
1034,0.6860008707930875,1.3624331031281192
1035,-0.7042661658402228,0.12302193652718785
1036,0.6425896885093995,-1.0508187038236958
1037,0.17504407811462522,-0.6741621542713724
1038,-0.0965096138686146,-0.47902661885993675
1039,0.30860523563171444,1.4017006236010587
1040,-0.9584858336350341,-1.5123857012739632
1041,0.5205283619705214,-0.44577833735291905
1042,-0.06853484773014071,-0.20331698078192106
1043,0.03334332391934069,-0.6932171415303491
1044,-0.13799600174743942,0.4768125013687384
1045,1.0019553286240959,0.5279671283794035
1047,-1.875753675726456,-0.7101262166727782
1048,-0.034002731161534336,1.016309054188428
1049,-0.12002581669638432,-0.20292519599715778
1050,0.7718010281624044,0.7899999157892932
1051,-0.12044992393813136,-0.9684904738253329
1052,-0.10548655048564445,1.0772315882192318
1053,-0.0057234777725806785,0.9688496700340615
1054,1.0799366883826986,1.54988431423839
1055,-2.2624742329339886,-1.5945981766768282
1056,-1.3166552738371002,0.011202997275679423
1057,0.7337129354899039,-0.2271000980570277
1058,-0.38587037273299185,-1.0841916441258652
1059,0.40771039839283246,0.4808728164108395
1060,0.5640972251517792,-0.1525274259570601
1061,0.8974781408008222,0.12435756647524689
1062,-0.7031134641062368,-0.8343487060419287
1063,-0.04314822322080556,-1.259862599094253
1064,-1.9711016833074657,-0.08180136810750324
1065,-1.1519331085960862,-0.7398306267176112
1066,-0.4998954107679646,-0.14811094292881166
1067,0.7350070063044702,-0.19207097661926367
1068,0.9996227387944749,1.6394160417566201
1069,-1.0283004103537867,-0.9187872313582246
1070,0.6896601550712655,0.4825557101453933
1071,0.18573375551564475,-1.0871033174126343
1072,0.7538852158346592,-0.3777858687970569
1073,0.6172465621787147,0.30951149407485645
1074,0.24626690836688164,-0.7120139069993683
1075,-0.8961910045488335,0.5982034552480059
1076,1.1087107335536925,0.1314007884013462
1077,1.1807437173831346,1.0609992322504869
1078,0.10308177882547027,-2.298582009699825
1079,1.1582062235747859,1.2337496097324516
1080,0.23703441995033397,0.6689206088979073
1081,-0.8449066519311337,0.2534150362563739
1082,2.0299369099014424,1.065104068290854
1083,1.484491498833024,0.7210101768722141
1084,0.05250427161069026,0.22971205677814904
1085,1.1614577124282002,0.18140677365667918
1086,-1.0546820556995382,0.169439529322069
1087,0.9661672021472376,-1.2792203291414572
1088,0.08944509982152837,-0.08814115826095635
1089,1.0439908810082588,-0.7773173072598044
1090,-1.4403586566196809,-0.3676617937907682
1091,0.19713027831957808,0.2906434950086067
1092,-1.8964153105809216,-1.1465210417019571
1093,-0.0210674602881825,-1.0076689523017324
1094,0.31675026958223956,0.9661427933393274
1095,0.07009384759862439,-1.3230467998371034
1096,0.4252890998361192,0.9024243406172553
1097,-0.036824675500877896,-0.1923648152078358
1098,0.6278655550394349,0.7117943302306066
1099,-2.6035108280238406,-1.1292557985733809
1100,0.6799546239620028,-0.4380762046524449
1101,-1.145745492684403,0.20237616384120657
1102,-0.07709855165007698,0.25311229346814496
1103,-1.3155351957370929,1.1890238148717795
1104,-0.6989430762290352,-0.5524595534042263
1105,0.6406975177385209,0.18314309258915554
1106,0.6754579997449841,0.8937605543541788
1107,-0.2290920623662829,1.6134068745680799
1108,0.8218565572334953,1.1569597919187058
1109,1.4187059409108866,-0.2655395279621678
1110,-0.7895660941551575,0.7644537669827497
1111,0.6096724418228529,0.058217171447360216
1112,1.06426103225495,1.5088448580343612
1113,-0.15778223575675002,0.4301723035825157
1114,0.6506368515579825,0.7501001971409396
1115,-0.10274072795892995,2.159777469520449
1116,-0.2002745190166386,-0.21324516339582741
1117,1.2915281411093527,0.7276349014145868
1118,1.648740621381317,0.8402552186349311
1119,1.0067346910022752,0.9594824519983416
1120,-0.4933108739761833,-1.148248456434781
1121,0.3406307696561348,1.2895255163633987
1122,-1.9687854052948341,-1.425142353066742
1123,-1.1192224782580713,-0.06369913021147629
1124,-1.4956883398509913,0.5152252186749179
1125,1.3708198834995051,1.5749941572619017
1126,-0.7516302451079091,-1.666535205679291
1127,-0.4674512067741331,-0.26422170641341675
1128,-0.6618880652992596,0.20871595399466106
1129,-0.1630128917383253,0.3768005308580724
1130,-0.09002294797877534,-1.3766856985511582
1131,-0.7400760414064,-1.3765877523549657
1132,-0.20192201253266487,1.1767449235492893
1133,0.9103753507678656,-0.140114971639764
1135,-1.8785103727978298,-1.1668226169124558
1136,0.013937698973138922,-0.8823245337762118
1137,-0.8743929797773833,0.9984650380823588
1138,1.1927111537817372,-0.42125617150655303
1139,-1.8202119388742717,0.5200869116858536
1140,-0.27483583447959187,-0.2722265819021184
1141,2.1881832837972888,1.51878194484792
1142,-0.7503959842889643,-1.0368123977683819
1143,-1.1829473099670949,-0.9423299352426804
1144,1.7226331523476648,1.1140682621867029
1145,0.28606230455103593,0.5462029292702376
1146,-1.6490031077434186,-0.6301665037823044
1147,-0.6040681113407586,-0.3553739982686253
1148,1.2828937526491233,0.5114587422213931
1149,-0.15018636631156904,-0.5490581491365027
1150,-1.0658828366995814,0.23756556087273695
1151,0.5377155798060337,0.8734678833433343
1152,0.330974173997834,0.3578434897952883
1153,-0.6268394078592999,0.5682497276128665
1154,0.023344180104251676,0.826747547760227
1155,-1.7387289757350726,0.3876636544356219
1156,1.3906387411428005,-0.0804568339597902
1157,0.1565954130985253,-1.073506604541393
1158,0.4252401643851451,0.28632495817654946
1159,-0.48962984060869824,0.408989212606298
1160,1.1686729728102663,0.7612838719060231
1161,-1.3730887233514288,-0.6054217329445982
1162,0.5595462282114687,0.18182527104040447
1164,-2.1248351211693044,-0.613907435214599
1165,-0.22504129448034252,0.4497348302217535
1166,0.6526323305031388,0.44721494171974774
1167,-1.9071267370712601,-0.6766553301744161
1168,0.4160729232365669,0.8602095300589336
1169,0.24912691361252756,1.841603703293809
1170,-0.8436506420228819,1.6470113240612476
1171,1.1863821687894738,-0.19019219049232758
1172,-0.4649174378682982,0.07121730294180194
1173,-0.5862338580979539,-0.10573585677672223
1174,0.3479384636678193,-1.5511189697676768
1175,-0.563674615200286,-1.7210823327580256
1176,1.0765003322700597,0.6239811132455463
1177,-0.5806878403212332,0.6944222367061836
1178,0.4185686312360873,1.116071707108792
1179,-0.3190245467064869,-0.006667731429351983
1180,-1.2220304234759995,0.6829091065539148
1181,-1.1473114271154765,-2.41579333226163
1182,-0.6619478752948932,0.20925020597388413
1183,-0.5608309217716295,0.20096930029591695
1184,-2.461581708390693,-2.087392202312717
1185,0.19497168120451613,-1.0123614655192477
1186,-1.9368577421723558,-1.9780486305649447
1187,-2.431497280588131,0.34755023499557924
1188,-0.6153341396087649,0.17529849269422162
1189,-1.3360174006046577,-2.1862288184690906
1190,2.082151036087595,0.5452501799072864
1191,0.47397987355235055,1.7094831888317994
1192,1.5215736961244426,1.2207939992362786
1193,0.5588067591745702,0.47723099875246505
1194,-0.3485054372804006,-0.7353518142917876
1195,-0.904901514821686,0.5651777787323297
1196,-0.12817628791923918,0.6927304387719759
1197,0.35576269855085707,0.2294360265888849
1198,0.1055829240973265,0.8574403239666244
1199,1.9281239855199244,0.614026218032678
1200,0.32402533995994537,0.09173257894398944
1201,1.8192752307432352,0.28012763521755474
1202,-0.4382911152676945,0.28415233346103846
1203,-0.15948953926840992,0.10850809109161134
1204,-2.1005142020366665,0.6186564018526154
1205,1.0370039860640554,1.2001629686385933
1206,-0.6922824176246369,-1.0603640058524915
1207,0.7392208923603162,0.7784333604391017
1208,0.93207006736505,1.402288300778203
1209,-0.13925201165569123,1.4238631765391838
1210,0.09522492030844779,-1.0818854564155513
1211,2.149524277530125,1.987766140609742
1212,-0.3364836281585063,0.44107994815833096
1213,-1.4426531855429934,-0.007549247195071147
1214,-1.2810085164408225,-2.113917813081171
1215,0.5012804179218833,-0.15854666492297906
1216,-1.3853878333621539,0.31521908605289534
1217,0.06720665599133566,-0.24361738841469066
1218,0.8314587801684922,1.2020417547655293
1219,0.765765655875961,-0.25583395033960576
1220,1.0952697963536349,0.5219656978127911
1221,0.3286905196191811,0.2764323923612591
1222,-1.755464899967189,-1.823409395178661
1223,-0.25316286697173257,-1.6128517859669689
1224,-0.6926630266877457,-1.5275050322859918
1225,-0.024781117289652297,-0.24390232280361018
1226,0.5998201043606678,0.3917773946756442
1227,1.1165893411600403,0.9192888947614157
1228,-0.03952156257661222,-0.9865303823237833
1229,-0.001254039917223022,-0.8188375902451352
1230,0.5038033122830646,-0.9239249545584273
1231,-0.6753996870396105,-1.0363493793863878
1232,0.04233657235336595,0.2556588945691113
1233,0.416469844116659,1.942060883787161
1234,1.5968309824456561,-0.09085693915534442
1235,0.16587683696604705,-1.0335089396968495
1237,0.21728080957500814,1.2558676416723098
1238,0.26447633340045307,0.24360260823796392
1239,0.8042832930625444,0.8873940516017623
1240,-0.9045589666648978,-0.34364716732466466
1241,-0.6018333924130675,-0.8135841124494363
1242,-1.5184922600035295,-2.1906453014973404
1243,0.20611265220893768,0.3144622290823279
1244,-0.4826375083921592,1.5600351018436394
1246,0.5847262363722541,-0.6062409193127395
1247,1.7201428816204682,1.5322896157226256
1248,0.5108772035845505,-1.0882430549683124
1249,0.061551892768007224,1.2849309493420786
1250,-1.922622963212102,-1.1046445907304776
1251,-1.1017525222613922,-0.48452051004628527
1252,0.4005766970957131,-0.6925760391552809
1253,1.3821457217631514,0.7215800456500504
1254,-0.318921238532215,-0.9938229218401862
1255,-1.0225151525945375,-0.34510745606787685
1256,0.8050825720950705,0.5306651008744836
1257,1.6100326796631852,0.8229276461087768
1258,-1.3193575981851704,-0.26374978383176884
1259,-1.3599848970358355,-0.9623465760642608
1260,0.48922598516601634,0.5400145105108954
1261,-0.21537382427738821,0.9651099061794959
1262,-0.9902666904045963,0.5534064267901019
1263,0.38607549179128164,-1.14688611388776
1264,-1.368641034585384,0.9393411523816094
1265,-0.14551031210766155,0.39492948135306133
1266,1.1028765403434755,0.9010976148688516
1267,0.9392418295684779,0.7150888841024863
1268,-0.04573636484993823,-1.1732603532621
1269,-1.2943950809175824,0.48849481131443045
1270,1.8555527117298038,0.5763792618967185
1271,-0.9326152918883184,-1.8095900773160751
1273,-1.2529848148513805,-1.1428257988456616
1274,-0.6177972239743127,-0.05536479933558653
1275,0.12850646424111997,-0.03503651152612738
1276,-1.0185622556105394,-1.441819919018174
1277,1.8118370421956238,0.46886105107795933
1278,1.2037270675225558,0.5890321296046656
1279,1.6543083882473628,1.5057283881555543
1280,0.10419098238081807,0.2499958235893396
1281,0.5427994294346928,-1.8282532797902886
1282,-0.019686393116333627,-0.4593572418248538
1283,0.8188823692689179,-0.7960250307322864
1284,-0.4721055118887093,-1.8189751037511046
1285,-0.12879613696486433,0.1194780650650032
1286,-0.1707718793534057,0.03181621947405949
1287,-1.7800631199886516,-2.1523394345870046
1288,0.9434067801733497,0.06479737499146426
1289,0.27658513887963604,1.129463623387997
1290,1.3978159406185582,0.5502009149147593
1291,-0.7647558205128214,-0.6061340689168957
1292,-2.279106848991827,-2.1991131953680347
1293,-0.872843357163293,0.632502432314163
1294,-0.6547326149128211,-0.5005747820219572
1295,-0.5456989928769012,-1.6779771022343306
1296,2.5154581426196074,1.6690670266035306
1297,-0.1020284452836864,-1.0842094525251733
1298,0.35096158708335856,-0.21605889048640387
1299,-1.1829473099670949,-1.2005695336000832
1300,-0.7710902427774087,-0.07453554119006099
1301,-0.8661500749249161,-0.27282316327891665
1302,-0.6708160664653214,-0.5830632876140879
1303,0.5606336826774914,-0.23851528201310543
1304,1.226302622237225,0.27339606027933555
1305,1.1904492484924034,0.9056565650915585
1306,-0.19496230395011055,-0.017548663406205273
1307,-0.8472283672161011,-0.7847879307692815
1308,-0.26537498062518133,-0.6607346211935514
1309,0.1097968101531724,0.643757340676473
1310,-0.9084194300192777,-0.6291514250217809
1311,1.2739929378447163,1.1726044707103052
1312,-0.009274016604144956,1.095244784118723
1313,-1.0434921492441427,-1.9583525409308997
1314,0.004090798783289787,1.1777332897108537
1315,-1.3640411021940997,1.1278875800492871
1316,-0.5428226758142659,-0.766881585265637
1317,1.0328934081824874,-0.4694367958328725
1318,0.021006153002294893,0.28903183487128076
1319,1.0962811290070344,0.9900772820085464
1320,-0.5873811225596102,-0.6337548962427577
1321,1.8689827743852019,1.2844590267604308
1322,-1.9409955064155788,0.08658595154413562
1323,0.34737842461781565,-0.395193579120093
1324,1.1714187953369746,0.7552468245407962
1326,-0.8621210561283009,-2.128556317311898
1327,-1.4800507446295692,-0.37121456945260545
1328,-0.5250754189287561,-0.6908931454207258
1329,-0.9029440967828501,1.1103552109310992
1330,1.1198408300134486,-0.26602925894312224
1331,1.9027699846445738,0.4849331314529392
1332,-0.47551468163969934,-0.9822207496913786
1334,0.3293864904774414,0.35948186253157205
1335,-0.6914233285964773,-0.1983573415747956
1336,0.18376546293214333,-0.29955357063940685
1337,-0.7968955372561611,-0.7204105672728333
1338,0.9867309660997552,0.7442501379684423
1339,1.193423436456981,1.1178436428398815
1340,-0.15615649133003678,-0.6016819690900312
1341,-0.6840830109508201,-1.2520892327965496
1342,0.20783083026525107,-1.019012902660581
1343,0.07961451144866857,0.1358796008271698
1344,-1.4468398852371902,-2.722755820704263
1345,0.15370278421890068,-0.39469494393948457
1346,0.6437804511497061,0.20431727936572064
1347,-0.8234566125888074,0.1549345880861465
1348,-0.93322426638929,0.5327486835934532
1349,-0.1041489814924338,0.26913985284485487
1350,2.54055115442311,1.0515607806175364
1351,1.4286180883686992,1.0527450391714803
1352,-0.2948884948330737,-1.8871278479007345
1353,0.2857795663898692,0.7423535434421982
1354,2.210182487644959,1.7996025935271764
1355,-1.7828470034216806,-1.632904043587164
1356,-0.8172853084941196,0.16564634026958222
1357,2.1321956906140325,1.8417906914865347
1358,0.2096958146744928,0.13083982382315976
1359,0.7875473688304341,0.029055917581402836
1360,-1.2591506816737386,0.16117643204340842
1361,-0.007729831262396648,-0.3330244571377689
1362,0.10513706776626033,-0.44984755659467135
1364,-0.16283346175142438,-0.4986336664974445
1365,-0.6178842203315892,-0.2434036876230017
1366,0.27761278335003103,0.30796216333510706
1367,-0.8290406912718427,-0.8302349658019064
1368,1.3823903990180095,1.7848572389006014
1369,0.33057181584540607,0.13792756674752626
1370,-0.46572215417315405,-1.01657315195546
1371,-2.266209639024778,-2.0479822146453195
1372,-0.3259788180167114,-0.4150766569468663
1373,1.8048718963407457,-0.22163291946963837
1374,-0.0074090321949153905,-2.376823212057126
1375,-0.10328445519193821,0.4186413650309374
1376,1.6649926283760526,0.6816447102030835
1377,1.4598225942712622,1.909898914637896
1378,0.7943222101537577,2.158495264770312
1379,-0.13028594958332096,-0.5074488241546348
1380,-0.8786992994628415,0.49966958187985727
1381,-0.5897191496615609,-0.7994086266007019
1382,-0.3444166084881518,-0.5957072511223794
1383,1.110254918895447,1.2771842956433332
1385,0.24373313946104067,0.19677542225901148
1386,0.47358295267225237,1.9116797545686395
1387,-0.8563249238243922,-1.3163241290985397
1388,0.31998000934632864,0.266326125754277
1389,0.5554900230531925,-0.3500225742767337
1390,-2.102123634646384,-2.4701677178670827
1391,2.498200240243802,1.0719068768263023
1392,0.8399463622758054,0.43407234303084763
1393,0.7225556526684991,0.053453424632615695
1394,-0.398272790917995,0.8675109737749904
1395,0.4432701594318217,-0.0543675289743682
1396,-1.1746282833020047,-1.4173244657707686
1397,0.6267291651224444,0.12673498778279146
1398,-0.6684019175507477,-0.3526315047752752
1399,0.06253060178742817,1.2707910802919589
1400,-0.7981189235304403,-0.007513630396456555
1401,-0.6910699058950234,-0.8059086923479241
1402,-0.7205399219242775,-1.046117286406528
1403,-1.0089274090415636,0.8748658426889698
1404,0.02611718899260898,-0.04752019944065263
1405,-0.3389249634347228,0.18821848639178157
1406,0.20966862831283783,1.3416150843377055
1407,0.3528537578542492,0.8437456648991918
1408,-0.504571464971866,-0.45769215648960526
1409,0.7060644056912411,1.7633090757385825
1410,1.0779847076161806,1.385031961849282
1411,0.20280135335989583,1.1688558026560854
1412,0.11649009239154934,-1.5370770469137496
1413,-0.35093046073963385,0.693585241938733
1414,-1.1308528037722032,0.04491429716469099
1415,-0.3357930945725758,-1.6143565957084485
1416,1.5116071759433383,1.0085089752917642
1417,2.6388407263347187,2.1680583751984144
1418,-1.651748930270127,0.2583479628645374
1419,0.37054120474412544,-1.2476994623672633
1420,0.40334970598407643,0.18202116343278543
1421,-0.35828709020229244,0.542240560424329
1422,-0.7102145417693775,-0.19911419854536158
1423,-1.1646508885762348,-0.500476835825766
1424,1.5344872179084874,0.9581735346492432
1425,-1.5757304258227078,-0.11315305508827683
1426,1.4276393793492723,0.7326123490210202
1427,-0.018131333229913595,-1.754936099841497
1428,1.4650043148018634,1.5216669055357257
1429,-0.8986323398250622,-2.3598874243157364
1430,2.1679838170908905,0.27335153928106837
1431,1.185044599796263,1.2284783235374446
1432,1.4344250952172615,1.475534247129764
1434,0.8866035961405841,0.29496203184066533
1435,-1.5330858989375673,-0.28731920031518515
1436,0.599417746208246,2.401775807709454
1437,2.080351298946329,0.9253793673245639
1438,0.3628746507586573,1.310272301556586
1439,-0.44297804401625546,-0.023336393181128717
1440,0.004846579637177648,0.4320599939091044
1441,1.510356603307404,-0.5451046844902482
1442,0.4523721533124547,-0.651839325739478
1443,1.1156650048639172,0.05743360187783223
1444,0.5218333073297473,0.6361798667711535
1445,-1.9466013341879331,-1.6542830269557627
1446,-2.2646872027723486,-0.18174210502094004
1447,0.19696172287734276,-0.3635124367521313
1448,0.685913874435811,0.24788552827140797
1450,0.7440002547384955,2.2102553773574294
1451,1.482262217177669,0.7652907617501988
1452,-0.2190711694618687,0.009128318756360979
1453,1.6272579584050122,0.9593221764045738
1454,-0.1388714025925885,-0.23374263099870832
1455,1.6918690655038382,2.448478334893252
1456,2.15647311156802,0.6204194333840537
1457,-1.2245315687478557,-0.8582119611139185
1458,-1.2778766475786754,0.11127729718392199
1459,0.20483489321135462,-0.8012963169272933
1460,1.3665788110820103,0.06425421881258721
1461,-0.8487725525578494,0.2503697999747963
1462,-0.7562573638608425,0.3757498352989343
1463,0.02232741017851012,0.0936915028678115
1464,1.0005579496352515,-0.3799852061115271
1465,0.12330299462118748,1.46782321022964
1466,-0.11598048608277371,-1.8283957469847485
1467,-0.43729609443127815,-0.19201755142134108
1468,-0.991500951223529,-1.1954852355978047
1469,-1.091862123892905,-1.9236083538820552
1470,1.294573013614217,-0.15331099552658808
1471,-0.5496736389502186,-0.6309767859507944
1472,0.5859713717358523,0.7078052487857347
1473,-1.955175912652535,-1.3402675219674127
1474,1.2541903920184103,-0.040753007703820246
1475,0.2572936966523657,-0.032507718824469053
1476,0.04307060411792253,1.0313037264053064
1477,0.9020508868304518,1.4463818974634635
1478,-0.07747916071319189,-0.21604998628675126
1479,0.4449285274925136,-0.7022549041788823
1480,0.48243483202569126,0.214948893752269
1481,1.7930730153843786,1.2565087440473808
1482,-1.661323966843475,-0.19337989396836072
1483,-1.9561818080336049,-0.8377590145093061
1484,-0.2075659012113398,0.0903613321973158
1485,-1.4296472301293421,-0.1420382787649687
1486,0.31441767975261864,1.1405671603561933
1487,0.8898061495430183,0.4857256052221198
1488,-1.8115340522354042,0.21558109192768463
1489,1.732528987988482,1.0941762801602755
1490,-1.2493527169348635,-0.4799526556239245
1491,-1.0550898511242959,-0.3865743138552851
1492,-0.5135049034102577,-0.8636702355016525
1493,0.2347562028440169,0.7846752043963651
1494,0.29872571180788665,-0.29064937098567944
1495,-1.1087231053886122,-2.159747728698907
1496,-0.5658495241323374,-0.6922198711691308
1497,-1.6728401096386696,-2.0189456195745152
1498,-0.7607485508055193,0.19014179351698346
1499,0.09972154452545433,0.9908074263801546
1500,0.8587321381763761,1.0278934179379275
1501,1.9928275262483628,0.29472161845001443
1502,-1.5908949783514148,-0.23778513764150003
1503,-0.6189934238869309,0.07113716514491876
1504,-0.08155711496078116,-0.163292603338417
1505,0.6714072318590498,-0.528462735337432
1506,0.9558363847200079,0.09273875350486037
1507,-0.2751348844577479,-0.4993638108690499
1508,0.07122480024329737,0.20234054704259058
1509,0.27643833252672595,0.03332993341519149
1510,-0.26739220865965685,-1.2431672247435144
1511,0.45752125020907725,0.48786261313901486
1512,-1.4053752464476845,-1.471693508856429
1513,0.1729561655398626,1.0766795278406993
1514,0.42979116132545553,0.1473482099811715
1515,-1.4103829742637268,0.5226068001878579
1516,-0.6740349316847509,-0.18582022846234775
1518,1.4445601708406133,2.297837085151493
1519,1.6217663133515832,-0.5240284439098742
1520,-0.6713434818813403,0.030792236513879172
1521,-0.9379764424058205,-0.607870387849372
1522,-0.3544646877542149,0.03493268935286346
1523,-0.32771874516235,-1.4314554306212344
1524,1.657239078033296,2.3544945075481603
1525,-2.3118501029638208,-1.4389794793286341
1526,-0.5840263255319301,-0.5347401960933086
1527,-1.1658035903102208,-0.3199798046450572
1528,-0.5200350674787352,-0.9562382951018032
1529,-0.03615045373193671,0.697752407376678
1530,-0.6884872015382144,-1.180437138183005
1531,-0.895353664609999,-1.250958399440527
1532,-0.7957482727945049,0.04158412649419668
1533,0.3348563864415452,-0.17377284633085438
1534,-1.0230643170998817,-1.0375959673379112
1535,-0.5340632300904393,1.054142998517116
1536,1.3397295603158736,0.5511536642777091
1537,-1.44955308412992,0.3032518417182851
1538,-0.3868817053863915,-1.1436895062120713
1539,1.2950623681239337,0.9362335867024594
1540,0.02850415154553377,-1.1201824191262317
1541,1.2912073420418775,1.1028934916212745
1542,0.21054946643031058,-0.21423352955739033
1543,-0.11153823458906495,0.26203430152117896
1544,0.9707780090831878,1.307120214879166
1545,0.8713085490759503,-0.14661503738698486
1546,-0.007099107672105857,-0.7054426076549168
1547,-1.169609680941303,-1.7867240926053038
1548,-0.5443722984283562,-0.15520759005283216
1549,-2.4174201825254467,-1.0102422660016592
1550,1.9116218639980067,0.15105235703712114
1551,1.0587856990185165,0.20234945124224457
1552,1.7489712995147721,1.6526031614437902
1553,1.9406460236961947,-0.3112893057830201
1554,-1.4583125298537465,-0.2203240021205413
1555,-1.5271918957317165,-0.38807021939711195
1556,-1.4902619420655319,-0.6066416082971582
1557,-0.28692289086945566,0.13599535542266897
1558,-0.39115540143787103,-1.3868364861564062
1559,-1.641999900982226,-0.8332980104827877
1560,-1.841487985502033,-1.5704945082141875
1561,0.9473596771573541,0.5198554024948566
1562,-0.11894379950269152,-0.25947576799797883
1563,0.7131654833543757,0.8643499828979179
1564,1.8430850462768371,1.432500250203301
1565,-1.2965210543986596,-0.8727881359470688
1566,-0.9587250736175567,0.33073910604934
1567,-0.7941605892741184,0.9206512373084355
1568,-0.2594483537853457,0.16631415524361104
1569,-0.14702731108777314,-1.1094617627431433
1570,0.3139881352385357,1.0120795593529095
1571,-0.9545546857403611,-0.348348584741834
1572,-0.13080792772701616,-0.45489623779833543
1573,0.1572696348674604,1.9834654121769926
1574,0.2218916165109522,0.9000202067107501
1575,-1.0327154754858465,1.0296030242714433
1576,1.110178797082824,-0.7364915518474643
1577,-1.3737194469417195,-0.9235865949715851
1578,-0.8301227084655355,0.39760074124917943
1579,-0.07532600087045972,0.22029141354450657
1580,1.2898860848656561,0.3911095797016126
1581,0.05501085415487018,-0.16951663889637092
1582,1.1249790523654115,0.42246126668238754
1583,-0.1832612938956914,-0.5408039560574975
1584,0.5934367466451126,-0.466017583165841
1585,0.22600763166484383,1.852929845253347
1586,0.6177087303267762,0.31420400729236897
1587,-0.012351512743000266,1.146230231335965
1588,-0.19830078916080737,-0.04006738433048343
1589,-0.6466202045962868,-0.9173981762122444
1590,0.3154833851293221,0.4744706968598098
1591,-0.2935618003845287,0.31584238002865556
1592,0.3495859571838395,0.49266197675237394
1593,-1.1256330223352875,-0.2322912464551501
1594,1.4704198380426694,0.22593667612497026
1595,0.05435294420293049,0.37335460559208034
1596,0.8217206254252447,-0.5091139094898804
1597,-0.5187844948428071,-0.9135604661614877
1598,0.5734873944658965,1.4543333477542426
1599,1.4514709439721933,1.1573159599048572
1600,-0.026053439014899517,0.004471422337461628
1601,0.2822181530136393,-0.9526499026413514
1602,0.44540157018523474,1.6465304972799457
1603,-0.45819153199593654,0.7977376652883805
1604,0.19031193881760408,-0.07811502945086023
1605,-0.3306113740419746,0.3462235092471728
1606,-1.6896793420450515,0.41033374675400963
1607,-1.3374365286828211,-0.17099473603889112
1608,0.7602631362778908,1.775801667852763
1609,-0.829057003088832,-1.580663104218745
1610,-2.5755414991576964,-0.5649165287197909
1611,-0.20563566953414075,-1.3022376852463424
1612,1.0261185668591517,1.0105836538110813
1613,1.1762851540724426,0.8562649696123331
1614,1.423159066949255,0.7935615956507831
1615,1.843694020777809,1.9240387836880157
1616,-0.7915941967342986,-0.5925373560456543
1617,1.6670424800445067,0.5735121096082194
1618,-0.19268408684379348,1.1527570096821464
1619,-2.256226807026678,0.1697956973082177
1620,-0.6529655014055336,-0.5351497892773799
1621,0.33545448639785125,-0.12757785852731618
1622,1.3136959003992583,-0.8399405434244698
1623,-1.51692632557245,0.6105446759680714
1624,0.5933878111941445,-0.4571579045103822
1625,0.16481656886166726,0.7366637598634673
1626,-1.171915084409281,-1.3779500949019854
1627,-0.4407052641822621,-0.871924428580659
1628,-0.06427746349565658,0.41385090561723226
1629,-0.25932329652175473,0.28934348185916225
1630,-0.0029287197948981774,-0.20977252553087333
1631,1.2749444605024884,0.039660819368992
1632,-0.3786388005339304,-0.7596068541485407
1633,-1.1074670954803483,-0.7450841045133116
1634,-1.4737489459989608,-0.8782375061351502
1635,2.102426624606616,0.034282682778141234
1636,-0.3659101460091223,0.1653881184796233
1637,0.2889223097966818,1.8343913015742865
1638,0.9529437558403833,0.45018004020443936
1639,-1.214902159451216,0.22796683364601872
1640,-0.3983434754582943,1.3784428541055225
1641,-0.2184676322332268,-0.3477609075646869
1642,-1.3303082646580315,-1.1115275370628093
1643,1.4048789573753904,0.6291455490447081
1644,-1.6625582276624076,0.20440632136225503
1645,1.0132322314367679,0.5322500484128462
1646,1.5361292741521777,0.2644562438269949
1647,0.16717634505293708,1.0848001579249003
1648,-0.24216326504789135,0.3962294945025058
1649,2.1225554067727272,0.7324075524289839
1650,0.44860412358767493,0.30849641531433014
1651,0.3185282576341927,1.5842812375007385
1652,-1.0746749060573866,-0.466222379757876
1653,-0.40023564622917274,-1.4650242633157862
1654,1.3924004173777642,2.0475133202862543
1655,-0.9238667207091513,-0.28885962685528055
1656,0.3138195797963065,0.11757256633910651
1657,0.33238786480366767,-0.16964129769152408
1658,0.0007740626619181458,0.2351169059679632
1659,-1.0136958968750835,-0.12293877050772342
1660,-0.8598156526603289,0.43620044674808867
1661,0.23443540377653566,1.1532556448627562
1662,-0.6446029765618052,-1.15615538572729
1663,-0.1467771965605851,-0.9767891879026067
1664,1.6293839318860892,-0.8365569475560529
1665,-0.2352579291886409,0.37249089822567055
1666,0.6161427958956966,-1.2013263905706493
1667,-0.009409948412401583,1.5725455023571253
1668,-0.9206913536683661,1.291333068893107
1669,0.7154980731839966,1.1503439715759871
1670,-1.284026202584038,-1.6631694182101835
1671,-0.9625746624272831,-0.877151193777396
1672,-0.6784119359105024,-0.029578237138392045
1673,0.9074066000756241,0.7098265021071333
1674,0.12061154481778293,0.43779429848610524
1675,0.7016112796528727,-1.5931467921332714
1676,0.8971138435547027,0.06737959289104656
1677,1.8958102760620197,-0.44774616547639234
1678,0.7508077196958038,0.942324059265609
1679,-1.5242122704948153,0.04359647561593994
1680,-2.157779554217506,-1.381956984746164
1681,-0.7658052140725295,-0.5080365013317804
1682,-1.1853832079709816,1.0453990744571564
1683,-1.027414134963978,-0.9436121399928168
1684,0.3101548582458047,0.9207135667060106
1685,-0.05532227596794584,-0.4563743349408542
1686,1.8655790419065477,-0.9163920016513721
1687,-1.0906822357972699,-0.09384875023899661
1688,1.6106742777981418,-1.1017863426416312
1689,-1.968410233504049,-0.03147483166463613
1690,0.9641717232020873,0.3775217710300266
1691,-0.829785597581065,-0.7131892613536596
1692,-0.12645267259058995,0.9583070976440475
1693,1.731022863553036,0.22164485189187222
1694,-0.3694769966576759,0.08929282823886829
1695,1.2115078042269674,0.9214259026783094
1696,0.7047757721489984,0.22529557374990064
1697,-0.8894705359488017,0.5680983562187527
1698,0.6975061390436285,-0.2057834440860042
1699,-0.87858511674391,-1.1717377351213127
1700,-2.5846271812213337,-0.9137741669531766
1701,0.6461946000642736,1.0373318695708809
1702,0.6093353309383883,-0.146160923204645
1703,-0.2791584659820394,0.31098959121737246
1704,0.9567498464714714,0.63822783269151
1705,0.8859891843672766,1.457636805825772
1706,-1.1086741699376441,1.349148037244758
1707,0.4880460970703754,1.1347705263816172
1708,-0.4107132700093127,0.4797152704558548
1709,-0.13939881800860743,1.0195947038606539
1710,0.3973415200592942,-0.3550000218831672
1711,-1.51792678368119,0.4984229939283368
1712,-0.9282274131179074,-1.8242285815468036
1713,0.01366039808430806,0.7024983457921145
1714,-0.5986688999169418,0.3399460484912935
1715,-0.10630757860748966,-0.41079373691342363
1716,-0.7275920641364442,0.7980225996773028
1717,0.9676842011273431,-0.6739395492800295
1718,0.23423966197265148,-0.8335829448717087
1719,-1.3257953286240296,-1.0265458555676334
1720,0.19110578057780037,-1.9946816755181083
1721,-0.9420108984747655,-0.3065700799665442
1722,-0.8632574460452915,1.017457695943759
1723,0.353533416895508,0.45620818337001234
1724,0.38664640538594486,-0.8735717055165981
1725,0.020408053045976687,1.299222189786308
1726,-0.9438650083393415,0.22519762755371084
1728,-0.5039026804752608,-0.5752988255160372
1729,-1.189983140362266,-0.5098529580611413
1730,0.03113579135331075,0.5489009017653149
1731,-0.25363590966444766,0.0713241533376471
1732,-0.8888724359924955,-0.3299881250558481
1733,1.5650120647697856,0.8784275225504597
1734,0.1635659962257331,-1.1545615339892734
1735,-0.5215738155481537,-0.8029524980628852
1736,1.5866687204606555,-0.46670320653917785
1737,0.4246094407948543,1.6399502937358432
1738,0.4419108413492919,0.16775663558751386
1739,-0.6444507329365653,-1.4807045589060015
1740,-1.6131823576325817,-0.016880848432176448
1741,2.0880396020211163,1.2475689275950388
1742,-0.31667020778754684,0.9866580693415163
1743,0.4729576663542914,0.4925195095579142
1744,-0.868509851116186,0.008932426363978634
1745,-0.05026017542860584,1.7055030115865828
1746,0.5690288311551923,1.2955180427303599
1747,-0.9396348104665063,-0.0517585984758267
1748,0.2560105003824589,-0.49402129107681375
1749,-0.6047097094757028,-0.9359901450892273
1750,1.8324171179651367,1.061854035417244
1751,-1.0495112097135906,-0.9704761103481128
1752,-0.7314851511248088,-1.01143542875526
1753,-0.3610111636396817,-0.9160981630628
1754,0.11532107884057398,1.0288995924987985
1755,0.8722872580953712,-1.6543364521536852
1756,-0.2639612898193477,0.5852300363525247
1757,0.0055425504954318625,0.08809966548526901
1758,0.8268207868708931,0.13948580168692964
1759,0.006613693144465119,-1.037676105134793
1760,-0.21753785866477385,-0.18702229541559964
1761,0.9764055859448613,0.8351620164329971
1762,2.3767696372952027,-0.4605325961791451
1763,0.07627058896564803,-0.019124706744916644
1764,-0.08476510563555115,-0.6359987545554965
1765,0.47985756494120596,1.3509555897744663
1766,-1.0615819542864589,0.2561753381490264
1767,-1.184219631692336,0.3613517444588569
1768,0.6709396264386585,0.15652843982416306
1769,-1.7778284010609788,-1.3497772071975938
1770,0.26763538862425507,0.4705439448125145
1771,0.1559157540572604,0.6395189416413004
1772,-1.3511384549547265,0.052509579469321346
1773,-0.6851215299658686,-1.1184282917944472
1774,0.6565417293084929,0.9837107792561327
1775,1.8772311165099929,1.1803244118100886
1776,1.139126834968389,-0.10616325836010151
1777,0.9139204523271062,0.6532225049083868
1778,2.007491849722706,0.8507977910249424
1779,1.6881825948640174,-0.3185373243011544
1780,-0.18568631735492463,0.2887469004823626
1781,1.3145441148827586,2.024736377572017
1782,0.18634816728895232,-1.0273205209375087
1783,-1.7782307592134068,-1.5525436417122729
1784,-1.8433203462772898,-1.6223347585981893
1785,-0.5815143057154082,-1.30987748854924
1786,0.2565705394324626,0.2592650954288711
1787,-0.4326798502230043,0.864100665307613
1788,-0.11111956461964768,-1.4169237767863514
1789,-0.7151950832237708,-0.6931280995338119
1790,-0.33096479674342844,-0.6214938133195753
1791,0.0035470715502754495,-0.26794366186867435
1792,-1.4788708565339284,-0.8243492898307931
1793,0.6240703389530123,1.340288358589302
1794,-0.2891956707034369,-0.42455072537843275
1795,0.4779980178043123,-1.014551898634064
1796,0.01630834970907438,0.8442175874808396
1797,1.275303320476272,-0.5792790027612523
1798,0.03334332391934069,-0.5193982600899355
1799,-0.7411363095107738,0.5780176346330065
1800,-0.9547014920932712,0.03907314219184635
1801,1.4640364803271082,1.069671922713216
1802,-0.03740102636786482,1.184527194046648
1803,-0.005886595942480113,-0.24467698817348557
1804,-0.08373202389283242,0.8787124569393793
1805,1.5653383011095843,0.8795316433075204
1806,0.36976367480091843,0.25725274630712786
1807,-1.2828300026714137,-1.2004893958031988
1808,-0.5480750808851664,0.04544854914391544
1809,0.7628458406346875,-0.8135039746525531
1810,-0.010236413806582646,0.012333830631703518
1811,0.5604923135969049,-0.2903644365967599
1812,-1.5925044109611326,-0.5194249726888975
1813,0.3697908611625734,-0.762589761032539
1814,-0.23001096139007626,-1.040365173430219
1815,-0.6111528771869038,0.37067444149630685
1816,-0.8515673105355319,-1.4942122297807057
1817,0.23282597116681783,0.18793355200285924
1818,1.001422475935747,1.2268221424018528
1819,-0.8744310406836917,-0.5338408719282814
1820,0.9166445257644955,0.6523142765437058
1821,-1.0292029975605848,-0.9663979869067051
1822,-1.1785213702903694,-0.8282048082808565
1823,0.3914964523044114,-0.05762646604763332
1824,1.8439821962113054,0.890902306265331
1825,0.9454783809311291,2.2327651940820523
1826,0.20662375580796727,0.13492685146422284
1827,-1.5980830523718381,-1.1690931878241566
1828,-1.9637831147511158,-1.882702460672832
1829,0.6688843374978684,0.6413710151692759
1830,-0.7147818505266712,0.4767590761708172
1831,0.6324817992477149,0.6476395717254984
1832,-0.25093358531637744,1.7613501518147618
1833,1.4780265820325038,0.3713244480710305
1834,0.5843891254877895,0.5217609012207561
1835,-0.8847781699279109,1.1901546482278023
1836,0.951796491378727,1.579232556297076
1837,0.9398616786141152,0.19222537623595728
1838,-0.537559396198712,0.9735688958505374
1839,0.2204181157094849,-0.1360101355993957
1840,-1.2349602570770337,0.2112180340973574
1841,1.3166972747254906,0.21063035692021315
1842,-1.0382614932625673,-1.9507127376280022
1843,-0.8986323398250622,-0.16332822013703158
1844,-1.4910720956427235,0.10104637178178814
1845,-0.2490468518178288,-0.3353306448480829
1846,0.11783309865708975,-1.446031605454386
1847,-0.31440286522588323,-1.1258098733073874
1848,0.9973282098711624,0.9030031135947484
1849,-0.9181956456688336,-0.10966260882401617
1850,0.5807515902989427,1.2236967683233935
1851,0.8984405380032477,0.36981073412989707
1852,1.5018092112044572,1.159132416634217
1853,-0.2607261127829288,1.0470552555927495
1854,-0.2637601107431337,-0.8662168366026187
1855,-0.3759364761858602,-1.5230084114608602
1856,-0.1217929302036718,0.20568852611239427
1857,1.1619035687592663,0.7178669943944468
1858,-0.9310819810912235,-1.68862652502019
1859,2.4399561790435476,1.70982154841864
1860,-0.5758160443134416,0.04876981561475575
1861,-0.4076901465937734,0.5705292027242213
1862,0.7103652881043634,-0.20146490725394556
1863,2.0078942078751396,-0.3277887877413765
1864,0.9241370870354045,-0.17176940140876512
1865,0.12773437157023668,-0.9439237869806983
1866,1.510633904196247,-0.22604940249788677
1867,0.8944822037469258,0.5123491621867649
1868,-0.25541933498873054,-0.2572051970862794
1869,1.2369977369105745,0.9370082520723334
1870,-0.36290333441056016,-1.3236700938128636
1871,-1.1777112167131898,-0.8175999064932674
1872,-0.3877842925931955,-1.7777753719533078
1873,0.2627364062548206,0.06775356927650186
1874,-0.9942957092012115,-0.6687751134808677
1875,1.7030589719592277,0.23721829708624223
1876,-0.2624660399285613,-0.07362731282538124
1877,-0.0054407396114139524,-0.5708111088905595
1878,1.505522868205933,1.7939662351463639
1879,0.07821713245983036,-0.29324049308491434
1880,0.9353433053077834,-0.19522306329668224
1881,0.6994798688994597,0.19192263344773117
1882,-0.14806583010282165,0.5442261969471103
1883,1.829127568205414,0.701616830026394
1884,-1.6213763270340749,-1.0365363675791164
1885,-0.7725474317618867,-1.1470463894815277
1886,-0.9686807192540073,-0.0592114135859959
1887,0.2350063173711989,-0.496024735998903
1888,0.14426911672613904,0.9114531990661359
1889,1.9947468833809023,0.27134809435897905
1890,1.4914892683218868,1.9806605892860703
1891,0.44652708555757187,0.4190865750136233
1892,-0.10246886434242279,-0.23017204693756307
1893,-0.3879093498567865,-0.26785461987213854
1895,1.1908679184618267,0.7775518446733811
1896,1.1508115332058189,-0.5065673083889156
1897,-0.23862360076098663,0.3786704127853545
1898,-1.5206997925695536,0.7148929917101026
1899,1.6879759785154735,1.2615307126520814
1900,-2.4856742620854555,-1.8416986212674176
1901,1.0220569244285518,1.1618660059279102
1902,-0.389502470649515,1.148937108030699
1903,-0.9812408183365924,-0.2013135358598318
1904,-1.2381464986624784,0.6964523942272335
1905,0.05471180417671412,0.8006404343754969
1906,0.6138700160617033,0.5790683301921445
1907,0.7917938785202526,-1.1480347556430905
1908,-0.4876941716591694,1.5439630214686608
1909,0.27860236691411155,0.04236769606372606
1910,0.07989181233750552,-1.1195235083518553
1911,-0.7932253784333356,-0.723179773365141
1912,-0.3728317936853682,-0.7340428969426892
1913,-0.8317810765262214,-1.127412629245058
1914,0.12889794784888833,-0.8883170601431702
1915,1.1252346041649355,1.0912735110731604
1916,0.6933357511664269,1.3053482791480737
1917,1.175398878682628,-0.8713901766014346
1918,-1.0418120320941378,0.8733699371471417
1919,0.5240517144404369,0.3395008385086076
1920,-0.6668196713026849,-0.23837281481864567
1921,0.9874323742303452,1.242876414377522
1922,-0.033355695754254205,-0.1591966714977013
1923,0.790733610415885,2.16298298139579
1924,1.711747733142761,-0.795846946739212
1925,-0.622826700879668,-1.1269318024637573
1926,-0.13013914323041084,-0.7590458895703557
1927,1.543246663632308,0.1795368917293971
1928,0.6659427731672758,-0.04562360491440854
1929,0.11529932975125487,0.5293561835253852
1930,-0.3644148961183359,0.5254027188791306
1931,-0.28792878625051943,0.3051217236455672
1932,-0.15600968497713277,-1.4827970458246265
1933,0.3229976954895503,0.4022665418677328
1934,1.188926812239968,1.4047725724815954
1935,1.010094925302291,0.8836631919468507
1936,0.4514586915609911,1.3222395458911946
1937,0.32127951743323085,-0.2964014839619883
1938,-0.9889019350497307,-0.4732656016839753
1939,0.16438702434759045,-1.2748038461132074
1940,-1.0761429695865241,-0.5420683524083274
1941,1.3232111269769726,-0.23201521626588456
1942,-1.1111753152094943,-0.16673852860440908
1943,-0.3852777100490095,-0.5264058652174203
1944,1.219212419118744,1.163913971848268
1945,-0.8795964493973096,0.837984647723229
1946,-1.2350037552556719,-0.2526729594625318
1947,2.5536495434663737,2.0511907547432404
1948,-1.3403291575624456,-1.719711086011352
1949,0.392257670430629,0.15716954219923268
1950,0.7333758246054334,0.5449563413187143
1951,-0.33234586391528337,-0.11856680847774359
1952,0.03108685590234275,0.33749739358652114
1953,1.017489615671252,2.180666721908094
1954,-1.8902603183032232,-1.0814224380335575
1955,0.6591570572992865,1.113881273993973
1956,-0.004124919707528503,0.060478838159407015
1957,1.1712448026224218,1.0923598234309146
1958,1.3620060650523809,0.3387885025363116
1959,-0.6122783925592349,0.6983400845538222
1960,0.3563716730518287,-1.9936042673600067
1961,-0.04467609674556453,-1.2158402360062244
1962,0.6797643194304424,-0.957467074654017
1963,-1.9100791759465123,-1.5621156563400305
1964,1.9850467895439632,-0.015607547881693988
1965,1.116143484828968,1.762543314568361
1966,0.07056145301901574,-0.026630947053008433
1967,-1.5005927594927677,-0.4235890718158304
1968,0.1515550616485044,0.0683768632522621
1969,-0.9867107143006961,-0.19516963809875965
1970,-1.1761180959204613,-0.3638953173372406
1971,-1.2857878788190018,-1.75159702497135
1972,1.5952215498359383,-1.376133638172626
1973,0.7052325030247303,0.3130820781360003
1974,1.045687309975259,0.5043175740991026
1975,2.5769156317669615,-0.10386597484944013
1976,0.2476044773600862,-1.2467110962056975
1977,-0.8157574349693546,-0.35361096673718695
1978,2.2954389177812557,-0.3919168336475213
1979,0.8382009978578432,1.0733226445712445
1980,-1.7371195431253548,-0.40366147299078853
1981,-0.33228061664731995,-0.01666714764048611
1982,-0.18497947195201087,0.4096303149813648
1983,1.0977383179915063,1.5651461124448771
1984,-1.051680681373312,0.5547153441392003
1985,-1.5132724785666078,-1.5398729656050194
1986,0.21837913858569027,0.5207992476581524
1987,-2.1763804628588517,-0.30629404977727864
1988,1.2640644785699144,-0.629685677001004
1989,1.1733272779248547,-0.3531212357562311
1990,0.012534882711970936,-0.38757158421650206
1991,0.036605687317414544,-0.11350922307442694
1992,-0.5477923427239997,-0.8786203867202608
1993,0.4417477231793925,1.3954587796437967
1994,1.2543861338222946,-1.1173330752370392
1995,-1.2574216290727596,-1.4184285865278308
1996,0.6975985726732408,1.300317406343719
1997,2.0092480886853337,-0.047003755860737566
1998,-0.4473441736973473,1.8850205808053826
1999,0.6788399831343191,0.49698051358443257
2000,0.4034312650690292,-0.02493914911879929
2001,0.5515914987925041,-0.14477186805866335
2002,0.38113301124320287,0.26997684761230406
2003,0.29637681016127637,-0.34109166202404434
2004,-0.16709628325824438,0.25629999694418093
2005,0.8767186350444205,1.0303242644433948
2006,0.5003778307150853,0.3208554444337036
2007,-0.9907669194589602,-1.2226786613402887
2008,-0.28902711526120767,1.1202477767463894
2009,2.632441056802162,1.932034754977062
2011,0.019043297691117147,-0.29819122809238724
2012,0.28413751014617267,0.48058788202192
2013,1.5722327624241814,0.3749217447311377
2014,-1.4653646720659133,-0.9425080192357547
2015,-1.212596755983244,-1.6016681112018867
2016,-1.376840441259213,0.19917065196586542
2017,-1.0889096850176527,-1.1097110803334496
2018,-1.3126371295851385,0.8051637677995905
2019,0.9311348565242673,1.5573727461471754
2020,-0.9766735095792866,-1.7028821486658074
2021,0.1289088223935479,-0.44755027308400996
2022,-1.0950755518400046,-0.3364881908030676
2023,1.7806597226547158,0.5804306727391656
2025,0.509860433658821,1.929897747060167
2026,-0.34126842780900934,-0.6068553090888471
2027,1.1575428763505042,-1.4957793689197616
2028,0.465171492377556,0.9359397481138859
2029,-0.20199813434528785,0.47886937148875025
2030,-0.46601032960665056,0.829605795849072
2031,1.3037348174904777,0.9053894391019455
2032,0.3738198799591886,0.6904954846588883
2033,-0.5803561667090985,-0.7343011187326467
2034,1.0216654408207835,1.5080078632669078
2035,-0.028842759720252242,0.12606717280876262
2036,0.2725941809893293,-0.09920907843054078
2037,0.7946593210382344,-0.5354792446645694
2038,-0.1434060877159035,-0.1528657855439008
2039,1.0119164115328825,1.273026034405045
2040,-0.740853571349607,1.2499285405032754
2041,-0.8864909107119006,-0.9121179858175834
2042,0.12682090981877917,0.36188599643808
2043,0.22407739998765694,0.6659377020139091
2044,0.24534800934308826,0.5362124172587547
2045,1.6024911829413082,0.9453871039464904
2046,0.9043345412091046,0.2802077730144379
2047,-1.5917758164688938,-1.5599875526227895
2048,2.0784645654477805,1.4041670869051404
2049,-1.123838722466351,-2.2688330786567206
2050,-0.8011692333076407,-1.3130919046242366
2051,1.3776871584524533,0.35459345692167576
2052,-0.9478994644082865,0.35137904084668065
2053,-1.77488683673038,-1.3843700228523244
2054,-2.280716281601545,-1.4471446304111022
2055,-1.4190880472642495,0.03282239403492903
2056,-1.3158559948045743,-1.7270125297274088
2057,-0.7707748809822633,-1.0666325624087154
2058,-0.3839836392344371,-1.3340701990084178
2059,-1.005936909260003,0.08686198173340114
2060,-1.0201662509479212,-0.680021117643525
2061,-0.16927662946262542,-0.2229507410183908
2062,0.4097385009719736,-0.09560287757078094
2063,-0.7623906070492219,-1.398358520508329
2064,-1.6180432790957078,0.055189743565092035
2065,0.7012959178577213,-0.20314780098850072
2066,-0.43510487368223755,-0.36715425441050437
2067,0.9894224159031719,-0.8361473543719816
2068,-0.7828456255551317,-0.5674898424197192
2069,-1.0045286557264992,-0.5139488899018556
2070,1.0530385021655817,1.7369170279649344
2071,-0.7030917150169177,-0.09698302851710858
2072,-0.17002697304418352,0.09306820889204988
2073,-0.06290727086846117,0.2172016562646646
2074,-0.18387026839666915,-0.4975384499400364
2075,1.727771374699628,2.747873144050182
2076,0.5569961474886445,0.07051387116915712
2077,1.4077063389870514,0.005094716313223258
2078,1.5785889337780938,1.2206515320418188
2079,0.28561644821996973,1.1613673707473031
2080,-0.7477915308428422,0.5048785386772877
2081,-1.0450254600412374,-0.9877680660756526
2082,0.0869113309156874,-0.5176530369578052
2083,2.6667991806561973,1.8196815637463306
2084,1.0374226560334787,1.0473134773827084
2085,-0.8092870808965108,-0.5561458920608693
2086,0.6948962483251706,-0.11435512204153152
2087,1.3825752662772282,0.7366548556638133
2088,-1.5601472033245776,-1.7343139734434643
2089,1.2780437057306506,-0.3665932898323207
2090,0.6183122675554181,0.41085909453358005
2091,-1.5131854822093314,-1.4927519410374948
2092,-0.49253334403297633,-2.3906870509179803
2093,-1.8145626129232733,-1.8274251892224935
2094,-0.9313755937970498,-0.5234941919306513
2095,1.799603179452856,0.30778407934203134
2096,-0.5879411616096138,0.49115716701089457
2097,1.549363595003698,0.49069414862890065
2098,-0.7262544951432336,-0.8253376559923561
2100,-0.8450806446456988,-0.17092350244166193
2101,-0.7537072831380123,-0.15437949948503557
2102,-0.8730010380608687,-0.8587640214924496
2103,-0.6185149439218861,0.33075691444864797
2104,0.28000518317527956,0.10793822231377509
2105,-2.470243283212571,-0.7741206995841172
2106,-0.24311478770566342,0.21055912332298257
2107,-1.4026402984656356,-0.9231324807892439
2108,-0.5844014973227031,1.7584295743283402
2109,-0.2159338633273919,-0.6130882488464564
2110,-0.5100902963869378,0.816979640740087
2111,0.004281103314844196,0.2731378384893794
2112,1.2740364360233545,0.6879399793582708
2113,0.6035935713577713,-0.07321771964130995
2114,0.0725243083301874,1.386527867391106
2115,-0.24057558152750483,-0.5176085159595366
2116,0.42949754861962924,-1.416273770211629
2117,-0.7441920565602979,0.29578121820880793
2118,-0.0596938429213614,1.0443483788980181
2119,-0.13165614221051636,-0.17783316137295269
2120,0.18211796941611097,1.2937906279975349
2121,1.6629427767075924,2.0191890611877445
2122,0.06838654408696447,-0.7546650233407218
2123,-0.8435527711209397,-0.682638952341722
2124,1.8827336361080753,0.6953393692705174
2125,0.3326651656925046,0.5396583425247481
2126,1.5407509556327874,1.7974210646120112
2127,0.487779670726198,-0.8397090342334729
2128,-0.4564842284842766,-0.3792461575402663
2129,0.4181553985389998,-0.1166078845539243
2130,1.3800849955500376,1.4381098959851488
2131,-0.8232717453295828,0.009760516931775211
2132,-0.02774986798189987,-1.1912379323629767
2133,0.435918967241499,0.341014552449741
2134,1.0665338120889434,0.214174228382395
2135,1.088125220511856,2.716913241854173
2136,-0.7822094646925112,-0.14590270141468745
2137,-1.547179308817241,-1.9359584788017747
2138,1.3089056634764256,0.297882609327087
2139,0.17745278975686912,2.221643848714545
2140,-1.2969179752787638,1.5005639523563925
2141,1.4381496267633969,0.8100254608105248
2142,-1.5820376617256462,-0.8625037853470151
2143,-1.9983261058643755,-1.1166385476640484
2144,-1.0554595856427453,-1.0681195637508882
2145,-0.34456885211339777,-0.4672730753170169
2146,1.165720533935014,2.057432598700505
2147,-0.2695236194130577,-0.43981252358492123
2148,-0.479108718649914,-1.0250499500258095
2149,-0.3884422025451413,0.5528009412136482
2150,-0.7822801492328043,1.2766856604627261
2151,0.07870104969721105,0.3284418225386786
2152,0.29758388461856017,1.4290632291369616
2153,0.2894116643063923,0.9741565730276831
2154,1.5113026886928462,-0.5475177225964087
2155,-0.6871713816343229,-2.0080735917973134
2156,-0.9177715384270866,-0.6050922775574088
2157,-0.9940727810356723,-0.9220105516328752
2158,-1.3412643684032284,0.045973896923484504
2159,1.644200498985666,0.14795369555762516
2160,-2.131713270666912,0.4473574089142075
2161,-0.4973562045897939,0.8151186630124575
2162,-0.5831346128697856,-1.1447312975715582
2163,-2.2145609891609643,-0.8300301692098715
2164,-0.6659062095512153,-0.475180004609526
2165,-0.3714724756028323,-0.8593427944699412
2166,-0.5700797220051664,0.9466425960976649
2167,1.0789036066399678,0.5441638675495337
2168,-0.858032227336046,-1.1523978134734179
2169,0.7979488707979511,0.8706185394541405
2170,-0.827001714148048,-0.1494732854758313
2171,-0.15972877925093235,-0.4995864158603928
2172,0.3321866857274537,-0.3341730988930996
2173,-0.6367569925894423,-1.7186692946518665
2174,-0.9124321369989096,-0.8837135889221934
2175,0.6071984829126454,-0.07068892693965162
2176,-1.1145301122371805,-1.0496522536690571
2177,1.0155865703557079,1.4825507564569014
2178,-1.8698052997973071,-1.233586305916104
2179,-1.3225601515876106,0.4151242061677147
2180,-1.5849683515115853,-0.11250304851355461
2181,-0.9181902083965099,-0.9988359862452342
2182,0.3477970945872268,1.0642047441258282
2183,-0.32690315431282846,-0.4780738694969884
2184,-0.6865189089547129,1.2492162045309751
2185,-1.3125827568618347,0.07647968493715493
2186,-0.009230518425506729,0.4481498826833909
2188,-0.9406733294815548,0.20604469409854298
2189,-1.2699817281553383,-0.7409881726725973
2190,-0.910545403500361,-1.904758163215115
2191,-1.5454067580376238,-0.2017409374432111
2192,-0.5035492577738069,1.309666815980131
2193,0.04310866502423707,-0.36340558635628617
2194,0.40240905787097003,-0.7833098336267628
2195,-0.8068457456202882,-0.35381576332922193
2196,1.8275616337743406,-0.1796852349009296
2197,-0.33940888067211566,-0.806531986323683
2198,-0.7939702847425578,0.6507026164063812
2199,-0.2982215427714469,0.48863727850888883
2200,0.7530913740744568,-0.3080926981073316
2201,0.2623557971917057,0.8579033423486182
2202,-0.6383555506544945,0.297660004335744
2203,0.3443172402959497,-0.4557688493644006
2204,1.3925526610029981,-0.19772514339937997
2205,-1.4825083917227813,-1.4622194404248638
2206,-1.435639104237135,-1.6201176128844113
2207,-1.2804756637524737,0.23260592166561006
2208,0.8583406545686137,1.1700489654096875
2209,-0.8563412356413754,0.9536769138241101
2210,0.14315447589846755,1.2072329031636517
2211,1.4965459315888971,0.8423298971542482
2212,0.1980328655263821,-0.5401005242848528
2213,0.8952325473284777,1.2862843876894443
2214,-1.434970319740536,0.8977051148007793
2215,2.1385301128786196,2.621575976161713
2216,1.1637794277131555,0.9009106266761219
2217,-1.5368376168453517,-0.4964788501812429
2218,0.7160744240509958,-0.4502037245808215
2219,-0.9028516631532378,0.3749573615297509
2220,0.3585248328945609,0.04045329313817398
2221,1.2406515839164105,0.7316506954584164
2222,-0.22647673437549526,0.15951134670816267
2223,0.6543450712871285,0.6815111472082791
2224,0.8864078543366999,0.253147910266761
2225,-1.1557283246825087,0.0721166271068277
2226,1.0498848842141155,0.6687158123058723
2227,0.2335273792974079,1.020173476838147
2228,-0.20734841031813042,1.6110472616598432
2229,0.07336164826902802,-1.1848892380098681
2230,-1.7549592336404891,-0.7503375823090106
2231,-1.4462254734638829,0.23685322490043953
2232,-0.18972621069620546,0.5703956397294155
2233,0.5812518193533066,1.137646582869773
2234,-0.4447234084342238,-0.8758244680289909
2235,-1.2484392551833998,-0.9012014370421142
2236,0.3160162378176769,1.2513532124478701
2237,-0.8973545808274852,0.9903087911995433
2239,-1.473814193266918,-1.293360198191577
2240,1.0534952330413134,1.12495809836321
2241,-1.5042520437709397,0.31285947314465734
2242,1.9482201440520566,1.3513562787588822
2243,0.6081282564810984,0.6327606541041192
2244,0.4597233455027774,-0.3057597977980542
2245,-0.8679226257045394,-0.7083008557437647
2246,-0.7041519831212913,0.6132248400638434
2247,-1.6527113274725647,-1.022254031334538
2248,0.8208941600310636,0.7254355641001166
2249,0.7846112417721652,-0.9912585123399132
2250,-0.5022062515082665,-0.5155872626381407
2251,1.3619299432397578,0.6460635283867898
2252,0.649266658930793,1.418636411342447
2253,-0.2759069771286251,-0.6452146011971054
2254,-0.3182959522142479,-0.20121558966364203
2255,0.7845188081425529,0.07553583977386058
2256,-2.088171593847297,-1.324694076773044
2257,0.6233363071884436,0.909627838137121
2258,0.48894324700484354,-0.6218410771060701
2260,-0.8559388774889536,0.8841796355267686
2261,-0.3084001165734247,-0.22360965179276562
2262,-1.2810792009811156,-0.06878342821375354
2263,1.1825652036137322,0.10908686406910578
2264,-0.95508210115638,0.31928830529464625
2265,-0.8168285776183879,1.0072801957395503
2266,-1.602122945713113,-0.9228386422006718
2267,-0.49433851844657833,-0.7987764284252876
2268,-1.9871905721322898,0.09800113550021336
2269,-2.058185036946677,-1.2417870737971881
2270,-0.5976466927188766,-1.2431761289431682
2271,-1.197002658940454,-0.018074011185777124
2272,0.46181125807754003,0.38193825405827503
2273,1.6876714912649817,1.4423215824213638
2274,-2.2322484360508468,-0.3653912228790674
2275,0.19740214193608524,0.8605300812464691
2276,0.8064364529052765,1.1801908488152828
2277,0.5615852053352633,1.0376346123591071
2278,1.2529506939271418,0.7428966996210753
2279,1.5501302504022392,0.7381863780042547
2280,2.1065807006668344,1.5624659483491052
2281,0.8596075390215312,1.1347794305812713
2282,1.5739563777528307,0.8448052646579853
2283,-0.027450818003743813,-0.2961521663716834
2284,-0.15778223575675002,0.07045154177158194
2285,0.32684728429927673,1.9444739218933187
2286,-0.5870276998581564,0.1619600016129378
2287,0.18532052281855727,-0.13894852148512532
2288,-1.8128933703179277,1.1875546219289148
2289,-1.055617266540315,-1.0204375746051786
2290,1.2230511333838048,0.32154106780704045
2291,-0.33883796707744634,-0.720748926859674
2292,1.0682356783282734,0.08797500669011864
2293,1.442787620060996,2.308539933135273
2294,1.4063742072661767,0.048618444220641995
2295,0.47160378554408533,0.6864351696167886
2296,0.407547280222933,-0.49575761000929147
2297,-0.445620558368692,0.10701218554978593
2298,-1.2028205403336818,-1.7620416511651713
2299,-0.2548538586663971,0.8155727771947974
2300,-0.49637205829804926,1.9648200181020872
2301,-0.16323038263152861,0.2246544713748338
2302,-1.8231970013835026,-1.8928532482780813
2303,0.7451040210215074,-1.1739281682361302
2304,0.6656002250104754,1.4048527102784787
2305,-0.34435136122019444,-0.7069118005977817
2306,-1.2810302655301415,-0.8235746244609178
2307,0.4184435739724902,-0.02056718708881946
2308,0.09666579747593029,-0.1930771511801346
2309,-1.1747805269272507,-2.070518743968904
2310,0.7136765869534053,0.2831995840980915
2311,1.5285497165239923,-0.29313364268906916
2312,-0.7628201515632987,0.9296088621600868
2313,-1.8052485654217787,-1.9735698181391197
2314,2.1456583769034094,0.19344525158851716
2315,-0.1888453725787327,-0.5916113192816665
2316,0.40260479967485424,-0.02336310578009071
2317,-0.5640171633570803,0.005931711080673833
2318,2.4858304456927773,0.2614911453423047
2319,-0.3394578161230837,0.8729603439630718
